//Numpy array shape (5, 5, 1, 6)
//Min -0.250000000000
//Max 0.250000000000
//Number of zeros 0

weight_default_layer1_t w1[150] = {-0.250000000000, -0.250000000000, 0.250000000000, -0.250000000000, -0.250000000000, 0.250000000000, 0.250000000000, -0.250000000000, 0.250000000000, 0.250000000000, -0.250000000000, -0.250000000000, 0.250000000000, -0.250000000000, 0.250000000000, 0.250000000000, -0.250000000000, -0.250000000000, 0.250000000000, 0.250000000000, 0.250000000000, 0.250000000000, -0.250000000000, -0.250000000000, 0.250000000000, 0.250000000000, -0.250000000000, 0.250000000000, -0.250000000000, 0.250000000000, 0.250000000000, -0.250000000000, -0.250000000000, 0.250000000000, -0.250000000000, -0.250000000000, 0.250000000000, -0.250000000000, -0.250000000000, 0.250000000000, 0.250000000000, -0.250000000000, 0.250000000000, -0.250000000000, -0.250000000000, 0.250000000000, 0.250000000000, -0.250000000000, -0.250000000000, -0.250000000000, -0.250000000000, 0.250000000000, -0.250000000000, -0.250000000000, -0.250000000000, -0.250000000000, -0.250000000000, 0.250000000000, -0.250000000000, 0.250000000000, 0.250000000000, 0.250000000000, -0.250000000000, -0.250000000000, 0.250000000000, -0.250000000000, 0.250000000000, -0.250000000000, -0.250000000000, -0.250000000000, 0.250000000000, -0.250000000000, 0.250000000000, -0.250000000000, -0.250000000000, -0.250000000000, 0.250000000000, -0.250000000000, -0.250000000000, -0.250000000000, -0.250000000000, 0.250000000000, 0.250000000000, 0.250000000000, -0.250000000000, -0.250000000000, 0.250000000000, 0.250000000000, -0.250000000000, 0.250000000000, 0.250000000000, 0.250000000000, -0.250000000000, -0.250000000000, 0.250000000000, -0.250000000000, 0.250000000000, 0.250000000000, -0.250000000000, -0.250000000000, 0.250000000000, -0.250000000000, -0.250000000000, -0.250000000000, -0.250000000000, -0.250000000000, 0.250000000000, 0.250000000000, -0.250000000000, -0.250000000000, 0.250000000000, -0.250000000000, 0.250000000000, 0.250000000000, -0.250000000000, -0.250000000000, 0.250000000000, -0.250000000000, 0.250000000000, 0.250000000000, -0.250000000000, 0.250000000000, 0.250000000000, -0.250000000000, 0.250000000000, -0.250000000000, -0.250000000000, 0.250000000000, 0.250000000000, -0.250000000000, 0.250000000000, -0.250000000000, -0.250000000000, 0.250000000000, 0.250000000000, -0.250000000000, 0.250000000000, -0.250000000000, -0.250000000000, 0.250000000000, 0.250000000000, -0.250000000000, 0.250000000000, 0.250000000000, -0.250000000000, 0.250000000000, -0.250000000000, -0.250000000000, -0.250000000000, 0.250000000000};
