//Numpy array shape (5, 5, 6, 8)
//Min -0.125000000000
//Max 0.125000000000
//Number of zeros 0

weight_default_t w3[1200] = {-0.125000000000, -0.125000000000, -0.125000000000, 0.125000000000, 0.125000000000, 0.125000000000, -0.125000000000, -0.125000000000, -0.125000000000, -0.125000000000, -0.125000000000, 0.125000000000, -0.125000000000, -0.125000000000, 0.125000000000, 0.125000000000, -0.125000000000, 0.125000000000, 0.125000000000, -0.125000000000, -0.125000000000, -0.125000000000, 0.125000000000, 0.125000000000, -0.125000000000, -0.125000000000, 0.125000000000, 0.125000000000, -0.125000000000, -0.125000000000, 0.125000000000, -0.125000000000, -0.125000000000, -0.125000000000, -0.125000000000, -0.125000000000, -0.125000000000, -0.125000000000, -0.125000000000, 0.125000000000, 0.125000000000, -0.125000000000, -0.125000000000, -0.125000000000, 0.125000000000, 0.125000000000, 0.125000000000, 0.125000000000, -0.125000000000, -0.125000000000, -0.125000000000, -0.125000000000, 0.125000000000, 0.125000000000, -0.125000000000, 0.125000000000, -0.125000000000, 0.125000000000, 0.125000000000, 0.125000000000, -0.125000000000, -0.125000000000, -0.125000000000, -0.125000000000, 0.125000000000, 0.125000000000, 0.125000000000, -0.125000000000, 0.125000000000, 0.125000000000, -0.125000000000, 0.125000000000, -0.125000000000, -0.125000000000, 0.125000000000, 0.125000000000, -0.125000000000, -0.125000000000, 0.125000000000, -0.125000000000, 0.125000000000, 0.125000000000, -0.125000000000, -0.125000000000, 0.125000000000, 0.125000000000, -0.125000000000, -0.125000000000, 0.125000000000, -0.125000000000, -0.125000000000, -0.125000000000, -0.125000000000, 0.125000000000, 0.125000000000, -0.125000000000, 0.125000000000, -0.125000000000, -0.125000000000, -0.125000000000, 0.125000000000, 0.125000000000, -0.125000000000, 0.125000000000, -0.125000000000, 0.125000000000, -0.125000000000, -0.125000000000, -0.125000000000, -0.125000000000, -0.125000000000, 0.125000000000, -0.125000000000, 0.125000000000, 0.125000000000, -0.125000000000, 0.125000000000, -0.125000000000, -0.125000000000, -0.125000000000, 0.125000000000, -0.125000000000, -0.125000000000, 0.125000000000, -0.125000000000, -0.125000000000, -0.125000000000, 0.125000000000, 0.125000000000, 0.125000000000, -0.125000000000, -0.125000000000, -0.125000000000, -0.125000000000, 0.125000000000, -0.125000000000, -0.125000000000, -0.125000000000, 0.125000000000, 0.125000000000, 0.125000000000, 0.125000000000, -0.125000000000, -0.125000000000, 0.125000000000, -0.125000000000, 0.125000000000, 0.125000000000, -0.125000000000, -0.125000000000, 0.125000000000, 0.125000000000, -0.125000000000, 0.125000000000, -0.125000000000, -0.125000000000, -0.125000000000, -0.125000000000, 0.125000000000, 0.125000000000, 0.125000000000, 0.125000000000, 0.125000000000, -0.125000000000, 0.125000000000, -0.125000000000, 0.125000000000, -0.125000000000, -0.125000000000, -0.125000000000, -0.125000000000, 0.125000000000, -0.125000000000, -0.125000000000, -0.125000000000, 0.125000000000, 0.125000000000, 0.125000000000, 0.125000000000, -0.125000000000, 0.125000000000, 0.125000000000, 0.125000000000, 0.125000000000, 0.125000000000, -0.125000000000, -0.125000000000, 0.125000000000, 0.125000000000, 0.125000000000, -0.125000000000, -0.125000000000, -0.125000000000, -0.125000000000, 0.125000000000, 0.125000000000, -0.125000000000, -0.125000000000, -0.125000000000, 0.125000000000, 0.125000000000, -0.125000000000, -0.125000000000, -0.125000000000, 0.125000000000, -0.125000000000, 0.125000000000, 0.125000000000, 0.125000000000, 0.125000000000, -0.125000000000, -0.125000000000, 0.125000000000, 0.125000000000, -0.125000000000, -0.125000000000, 0.125000000000, 0.125000000000, -0.125000000000, 0.125000000000, 0.125000000000, -0.125000000000, -0.125000000000, 0.125000000000, 0.125000000000, 0.125000000000, 0.125000000000, -0.125000000000, 0.125000000000, -0.125000000000, 0.125000000000, -0.125000000000, -0.125000000000, -0.125000000000, -0.125000000000, 0.125000000000, 0.125000000000, 0.125000000000, -0.125000000000, -0.125000000000, -0.125000000000, -0.125000000000, -0.125000000000, -0.125000000000, -0.125000000000, 0.125000000000, 0.125000000000, -0.125000000000, 0.125000000000, -0.125000000000, 0.125000000000, 0.125000000000, -0.125000000000, -0.125000000000, 0.125000000000, 0.125000000000, 0.125000000000, 0.125000000000, 0.125000000000, 0.125000000000, -0.125000000000, 0.125000000000, -0.125000000000, 0.125000000000, -0.125000000000, 0.125000000000, -0.125000000000, -0.125000000000, -0.125000000000, -0.125000000000, 0.125000000000, -0.125000000000, 0.125000000000, -0.125000000000, -0.125000000000, -0.125000000000, -0.125000000000, -0.125000000000, -0.125000000000, -0.125000000000, -0.125000000000, 0.125000000000, 0.125000000000, -0.125000000000, -0.125000000000, 0.125000000000, -0.125000000000, -0.125000000000, -0.125000000000, -0.125000000000, 0.125000000000, -0.125000000000, -0.125000000000, 0.125000000000, -0.125000000000, 0.125000000000, 0.125000000000, 0.125000000000, -0.125000000000, 0.125000000000, 0.125000000000, -0.125000000000, -0.125000000000, 0.125000000000, -0.125000000000, 0.125000000000, 0.125000000000, -0.125000000000, -0.125000000000, -0.125000000000, -0.125000000000, 0.125000000000, -0.125000000000, 0.125000000000, -0.125000000000, 0.125000000000, -0.125000000000, -0.125000000000, 0.125000000000, -0.125000000000, 0.125000000000, 0.125000000000, 0.125000000000, -0.125000000000, 0.125000000000, -0.125000000000, -0.125000000000, 0.125000000000, -0.125000000000, 0.125000000000, 0.125000000000, -0.125000000000, 0.125000000000, 0.125000000000, 0.125000000000, -0.125000000000, 0.125000000000, -0.125000000000, 0.125000000000, -0.125000000000, -0.125000000000, 0.125000000000, -0.125000000000, -0.125000000000, -0.125000000000, 0.125000000000, -0.125000000000, 0.125000000000, 0.125000000000, -0.125000000000, -0.125000000000, 0.125000000000, 0.125000000000, 0.125000000000, 0.125000000000, 0.125000000000, 0.125000000000, -0.125000000000, 0.125000000000, 0.125000000000, -0.125000000000, 0.125000000000, -0.125000000000, 0.125000000000, -0.125000000000, -0.125000000000, -0.125000000000, -0.125000000000, 0.125000000000, 0.125000000000, 0.125000000000, -0.125000000000, 0.125000000000, 0.125000000000, 0.125000000000, -0.125000000000, 0.125000000000, -0.125000000000, 0.125000000000, -0.125000000000, 0.125000000000, 0.125000000000, -0.125000000000, -0.125000000000, 0.125000000000, -0.125000000000, 0.125000000000, -0.125000000000, -0.125000000000, 0.125000000000, 0.125000000000, -0.125000000000, -0.125000000000, 0.125000000000, -0.125000000000, 0.125000000000, 0.125000000000, -0.125000000000, -0.125000000000, 0.125000000000, 0.125000000000, -0.125000000000, 0.125000000000, 0.125000000000, 0.125000000000, -0.125000000000, 0.125000000000, 0.125000000000, 0.125000000000, -0.125000000000, 0.125000000000, 0.125000000000, -0.125000000000, -0.125000000000, -0.125000000000, 0.125000000000, 0.125000000000, 0.125000000000, -0.125000000000, -0.125000000000, 0.125000000000, -0.125000000000, 0.125000000000, -0.125000000000, -0.125000000000, -0.125000000000, -0.125000000000, -0.125000000000, -0.125000000000, 0.125000000000, 0.125000000000, -0.125000000000, 0.125000000000, 0.125000000000, 0.125000000000, -0.125000000000, -0.125000000000, -0.125000000000, 0.125000000000, -0.125000000000, -0.125000000000, 0.125000000000, -0.125000000000, 0.125000000000, 0.125000000000, -0.125000000000, 0.125000000000, 0.125000000000, -0.125000000000, 0.125000000000, -0.125000000000, 0.125000000000, 0.125000000000, 0.125000000000, -0.125000000000, 0.125000000000, 0.125000000000, -0.125000000000, 0.125000000000, 0.125000000000, 0.125000000000, -0.125000000000, -0.125000000000, -0.125000000000, -0.125000000000, 0.125000000000, 0.125000000000, -0.125000000000, 0.125000000000, -0.125000000000, -0.125000000000, 0.125000000000, -0.125000000000, -0.125000000000, -0.125000000000, -0.125000000000, -0.125000000000, 0.125000000000, -0.125000000000, -0.125000000000, 0.125000000000, 0.125000000000, -0.125000000000, 0.125000000000, -0.125000000000, 0.125000000000, -0.125000000000, -0.125000000000, -0.125000000000, -0.125000000000, -0.125000000000, 0.125000000000, -0.125000000000, -0.125000000000, 0.125000000000, -0.125000000000, -0.125000000000, -0.125000000000, 0.125000000000, 0.125000000000, 0.125000000000, -0.125000000000, 0.125000000000, -0.125000000000, 0.125000000000, 0.125000000000, -0.125000000000, -0.125000000000, -0.125000000000, -0.125000000000, -0.125000000000, 0.125000000000, -0.125000000000, -0.125000000000, 0.125000000000, 0.125000000000, 0.125000000000, 0.125000000000, -0.125000000000, 0.125000000000, -0.125000000000, -0.125000000000, 0.125000000000, -0.125000000000, -0.125000000000, 0.125000000000, -0.125000000000, -0.125000000000, 0.125000000000, -0.125000000000, 0.125000000000, -0.125000000000, -0.125000000000, 0.125000000000, -0.125000000000, -0.125000000000, -0.125000000000, -0.125000000000, -0.125000000000, 0.125000000000, -0.125000000000, -0.125000000000, -0.125000000000, -0.125000000000, -0.125000000000, -0.125000000000, -0.125000000000, 0.125000000000, 0.125000000000, -0.125000000000, 0.125000000000, 0.125000000000, 0.125000000000, 0.125000000000, -0.125000000000, -0.125000000000, 0.125000000000, 0.125000000000, -0.125000000000, -0.125000000000, 0.125000000000, -0.125000000000, 0.125000000000, 0.125000000000, -0.125000000000, 0.125000000000, -0.125000000000, 0.125000000000, 0.125000000000, 0.125000000000, 0.125000000000, -0.125000000000, -0.125000000000, 0.125000000000, 0.125000000000, -0.125000000000, 0.125000000000, -0.125000000000, 0.125000000000, -0.125000000000, 0.125000000000, -0.125000000000, 0.125000000000, -0.125000000000, -0.125000000000, -0.125000000000, -0.125000000000, 0.125000000000, 0.125000000000, 0.125000000000, -0.125000000000, 0.125000000000, -0.125000000000, -0.125000000000, -0.125000000000, -0.125000000000, 0.125000000000, -0.125000000000, -0.125000000000, 0.125000000000, 0.125000000000, 0.125000000000, 0.125000000000, -0.125000000000, 0.125000000000, -0.125000000000, -0.125000000000, -0.125000000000, -0.125000000000, -0.125000000000, -0.125000000000, -0.125000000000, 0.125000000000, 0.125000000000, 0.125000000000, 0.125000000000, -0.125000000000, -0.125000000000, -0.125000000000, -0.125000000000, -0.125000000000, -0.125000000000, 0.125000000000, -0.125000000000, 0.125000000000, -0.125000000000, 0.125000000000, -0.125000000000, 0.125000000000, -0.125000000000, 0.125000000000, -0.125000000000, -0.125000000000, 0.125000000000, -0.125000000000, 0.125000000000, 0.125000000000, 0.125000000000, -0.125000000000, 0.125000000000, -0.125000000000, -0.125000000000, -0.125000000000, -0.125000000000, -0.125000000000, 0.125000000000, -0.125000000000, 0.125000000000, 0.125000000000, 0.125000000000, 0.125000000000, -0.125000000000, 0.125000000000, -0.125000000000, -0.125000000000, -0.125000000000, -0.125000000000, 0.125000000000, 0.125000000000, -0.125000000000, -0.125000000000, 0.125000000000, 0.125000000000, 0.125000000000, -0.125000000000, -0.125000000000, 0.125000000000, -0.125000000000, -0.125000000000, -0.125000000000, 0.125000000000, -0.125000000000, -0.125000000000, 0.125000000000, -0.125000000000, -0.125000000000, -0.125000000000, -0.125000000000, 0.125000000000, 0.125000000000, -0.125000000000, 0.125000000000, -0.125000000000, 0.125000000000, 0.125000000000, -0.125000000000, -0.125000000000, 0.125000000000, -0.125000000000, -0.125000000000, -0.125000000000, 0.125000000000, -0.125000000000, 0.125000000000, -0.125000000000, 0.125000000000, 0.125000000000, -0.125000000000, 0.125000000000, -0.125000000000, 0.125000000000, -0.125000000000, -0.125000000000, -0.125000000000, -0.125000000000, 0.125000000000, -0.125000000000, 0.125000000000, 0.125000000000, -0.125000000000, -0.125000000000, 0.125000000000, -0.125000000000, -0.125000000000, -0.125000000000, 0.125000000000, -0.125000000000, -0.125000000000, -0.125000000000, -0.125000000000, -0.125000000000, 0.125000000000, 0.125000000000, 0.125000000000, 0.125000000000, -0.125000000000, -0.125000000000, -0.125000000000, -0.125000000000, 0.125000000000, -0.125000000000, 0.125000000000, -0.125000000000, 0.125000000000, 0.125000000000, 0.125000000000, 0.125000000000, -0.125000000000, -0.125000000000, 0.125000000000, -0.125000000000, -0.125000000000, 0.125000000000, -0.125000000000, 0.125000000000, -0.125000000000, -0.125000000000, 0.125000000000, 0.125000000000, -0.125000000000, 0.125000000000, 0.125000000000, -0.125000000000, -0.125000000000, -0.125000000000, -0.125000000000, 0.125000000000, -0.125000000000, -0.125000000000, -0.125000000000, -0.125000000000, -0.125000000000, -0.125000000000, 0.125000000000, -0.125000000000, -0.125000000000, 0.125000000000, -0.125000000000, 0.125000000000, -0.125000000000, 0.125000000000, -0.125000000000, 0.125000000000, -0.125000000000, -0.125000000000, -0.125000000000, 0.125000000000, -0.125000000000, -0.125000000000, 0.125000000000, 0.125000000000, 0.125000000000, -0.125000000000, 0.125000000000, 0.125000000000, -0.125000000000, -0.125000000000, -0.125000000000, -0.125000000000, -0.125000000000, 0.125000000000, 0.125000000000, -0.125000000000, 0.125000000000, -0.125000000000, 0.125000000000, 0.125000000000, 0.125000000000, -0.125000000000, 0.125000000000, -0.125000000000, -0.125000000000, 0.125000000000, 0.125000000000, -0.125000000000, 0.125000000000, -0.125000000000, 0.125000000000, -0.125000000000, -0.125000000000, 0.125000000000, 0.125000000000, -0.125000000000, -0.125000000000, -0.125000000000, -0.125000000000, 0.125000000000, -0.125000000000, -0.125000000000, -0.125000000000, 0.125000000000, -0.125000000000, 0.125000000000, 0.125000000000, -0.125000000000, -0.125000000000, -0.125000000000, 0.125000000000, 0.125000000000, 0.125000000000, -0.125000000000, -0.125000000000, 0.125000000000, -0.125000000000, -0.125000000000, 0.125000000000, 0.125000000000, -0.125000000000, -0.125000000000, 0.125000000000, -0.125000000000, 0.125000000000, 0.125000000000, 0.125000000000, 0.125000000000, 0.125000000000, 0.125000000000, 0.125000000000, -0.125000000000, -0.125000000000, 0.125000000000, -0.125000000000, -0.125000000000, 0.125000000000, 0.125000000000, 0.125000000000, -0.125000000000, 0.125000000000, -0.125000000000, 0.125000000000, -0.125000000000, -0.125000000000, 0.125000000000, -0.125000000000, -0.125000000000, -0.125000000000, -0.125000000000, 0.125000000000, 0.125000000000, -0.125000000000, 0.125000000000, 0.125000000000, -0.125000000000, -0.125000000000, 0.125000000000, 0.125000000000, 0.125000000000, 0.125000000000, -0.125000000000, -0.125000000000, 0.125000000000, -0.125000000000, -0.125000000000, -0.125000000000, 0.125000000000, 0.125000000000, -0.125000000000, -0.125000000000, -0.125000000000, 0.125000000000, 0.125000000000, -0.125000000000, 0.125000000000, 0.125000000000, -0.125000000000, 0.125000000000, -0.125000000000, -0.125000000000, 0.125000000000, 0.125000000000, -0.125000000000, 0.125000000000, 0.125000000000, -0.125000000000, 0.125000000000, 0.125000000000, -0.125000000000, 0.125000000000, -0.125000000000, -0.125000000000, 0.125000000000, -0.125000000000, -0.125000000000, 0.125000000000, -0.125000000000, -0.125000000000, -0.125000000000, 0.125000000000, 0.125000000000, 0.125000000000, -0.125000000000, -0.125000000000, 0.125000000000, 0.125000000000, 0.125000000000, 0.125000000000, -0.125000000000, -0.125000000000, 0.125000000000, -0.125000000000, -0.125000000000, -0.125000000000, -0.125000000000, 0.125000000000, -0.125000000000, 0.125000000000, -0.125000000000, 0.125000000000, -0.125000000000, -0.125000000000, 0.125000000000, 0.125000000000, -0.125000000000, 0.125000000000, -0.125000000000, 0.125000000000, -0.125000000000, 0.125000000000, -0.125000000000, 0.125000000000, -0.125000000000, 0.125000000000, 0.125000000000, -0.125000000000, -0.125000000000, -0.125000000000, -0.125000000000, -0.125000000000, -0.125000000000, -0.125000000000, 0.125000000000, 0.125000000000, -0.125000000000, 0.125000000000, -0.125000000000, -0.125000000000, -0.125000000000, 0.125000000000, 0.125000000000, 0.125000000000, 0.125000000000, -0.125000000000, -0.125000000000, 0.125000000000, 0.125000000000, 0.125000000000, -0.125000000000, 0.125000000000, -0.125000000000, 0.125000000000, -0.125000000000, -0.125000000000, 0.125000000000, -0.125000000000, -0.125000000000, -0.125000000000, -0.125000000000, -0.125000000000, -0.125000000000, 0.125000000000, 0.125000000000, 0.125000000000, 0.125000000000, -0.125000000000, 0.125000000000, -0.125000000000, -0.125000000000, -0.125000000000, -0.125000000000, -0.125000000000, 0.125000000000, 0.125000000000, -0.125000000000, 0.125000000000, -0.125000000000, -0.125000000000, 0.125000000000, -0.125000000000, 0.125000000000, -0.125000000000, -0.125000000000, 0.125000000000, -0.125000000000, -0.125000000000, -0.125000000000, 0.125000000000, -0.125000000000, 0.125000000000, 0.125000000000, -0.125000000000, 0.125000000000, 0.125000000000, -0.125000000000, 0.125000000000, 0.125000000000, 0.125000000000, -0.125000000000, 0.125000000000, 0.125000000000, 0.125000000000, -0.125000000000, -0.125000000000, -0.125000000000, -0.125000000000, 0.125000000000, -0.125000000000, -0.125000000000, 0.125000000000, 0.125000000000, 0.125000000000, -0.125000000000, 0.125000000000, 0.125000000000, 0.125000000000, 0.125000000000, 0.125000000000, -0.125000000000, -0.125000000000, 0.125000000000, 0.125000000000, -0.125000000000, 0.125000000000, -0.125000000000, -0.125000000000, 0.125000000000, 0.125000000000, -0.125000000000, -0.125000000000, -0.125000000000, -0.125000000000, -0.125000000000, 0.125000000000, 0.125000000000, 0.125000000000, 0.125000000000, 0.125000000000, 0.125000000000, 0.125000000000, 0.125000000000, 0.125000000000, -0.125000000000, -0.125000000000, 0.125000000000, 0.125000000000, -0.125000000000, -0.125000000000, 0.125000000000, 0.125000000000, -0.125000000000, 0.125000000000, -0.125000000000, 0.125000000000, 0.125000000000, -0.125000000000, -0.125000000000, 0.125000000000, 0.125000000000, 0.125000000000, -0.125000000000, -0.125000000000, 0.125000000000, 0.125000000000, -0.125000000000, 0.125000000000, 0.125000000000, -0.125000000000, 0.125000000000, 0.125000000000, -0.125000000000, -0.125000000000, -0.125000000000, -0.125000000000, 0.125000000000, -0.125000000000, -0.125000000000, -0.125000000000, -0.125000000000, 0.125000000000, -0.125000000000, -0.125000000000, 0.125000000000, 0.125000000000, -0.125000000000, -0.125000000000, 0.125000000000, 0.125000000000, -0.125000000000, 0.125000000000, -0.125000000000, -0.125000000000, -0.125000000000, -0.125000000000, -0.125000000000, 0.125000000000, 0.125000000000, 0.125000000000, -0.125000000000, 0.125000000000, -0.125000000000, 0.125000000000, 0.125000000000, 0.125000000000, -0.125000000000, 0.125000000000, 0.125000000000, 0.125000000000, -0.125000000000, -0.125000000000, -0.125000000000, -0.125000000000, 0.125000000000, -0.125000000000, 0.125000000000, -0.125000000000, 0.125000000000, 0.125000000000, -0.125000000000, -0.125000000000, 0.125000000000, -0.125000000000, -0.125000000000, -0.125000000000, -0.125000000000, -0.125000000000, 0.125000000000, 0.125000000000, 0.125000000000, 0.125000000000, -0.125000000000, 0.125000000000, 0.125000000000, -0.125000000000, -0.125000000000, -0.125000000000, -0.125000000000, 0.125000000000, 0.125000000000, -0.125000000000, -0.125000000000, 0.125000000000, -0.125000000000, -0.125000000000, -0.125000000000, -0.125000000000, -0.125000000000, -0.125000000000, 0.125000000000, 0.125000000000, 0.125000000000, -0.125000000000, -0.125000000000, 0.125000000000, 0.125000000000, 0.125000000000, -0.125000000000, -0.125000000000, -0.125000000000, -0.125000000000, -0.125000000000, -0.125000000000, 0.125000000000, -0.125000000000, -0.125000000000, -0.125000000000, -0.125000000000, -0.125000000000, 0.125000000000, -0.125000000000, -0.125000000000, -0.125000000000};
