//Numpy array shape (128, 24)
//Min -0.125000000000
//Max 0.125000000000
//Number of zeros 0

weight_default_t w5_3[3072] = {-0.125000000000, -0.125000000000, 0.125000000000, 0.125000000000, 0.125000000000, -0.125000000000, 0.125000000000, 0.125000000000, -0.125000000000, 0.125000000000, -0.125000000000, -0.125000000000, 0.125000000000, -0.125000000000, -0.125000000000, -0.125000000000, 0.125000000000, -0.125000000000, 0.125000000000, -0.125000000000, 0.125000000000, -0.125000000000, -0.125000000000, 0.125000000000, -0.125000000000, -0.125000000000, 0.125000000000, 0.125000000000, -0.125000000000, -0.125000000000, 0.125000000000, 0.125000000000, -0.125000000000, -0.125000000000, -0.125000000000, 0.125000000000, 0.125000000000, -0.125000000000, -0.125000000000, -0.125000000000, 0.125000000000, -0.125000000000, -0.125000000000, -0.125000000000, 0.125000000000, -0.125000000000, -0.125000000000, 0.125000000000, -0.125000000000, 0.125000000000, -0.125000000000, -0.125000000000, -0.125000000000, -0.125000000000, -0.125000000000, 0.125000000000, 0.125000000000, -0.125000000000, -0.125000000000, 0.125000000000, 0.125000000000, 0.125000000000, -0.125000000000, 0.125000000000, -0.125000000000, -0.125000000000, -0.125000000000, -0.125000000000, -0.125000000000, 0.125000000000, -0.125000000000, -0.125000000000, 0.125000000000, 0.125000000000, -0.125000000000, -0.125000000000, -0.125000000000, -0.125000000000, -0.125000000000, 0.125000000000, -0.125000000000, -0.125000000000, -0.125000000000, 0.125000000000, 0.125000000000, 0.125000000000, -0.125000000000, 0.125000000000, -0.125000000000, 0.125000000000, -0.125000000000, -0.125000000000, -0.125000000000, -0.125000000000, -0.125000000000, -0.125000000000, -0.125000000000, 0.125000000000, 0.125000000000, 0.125000000000, -0.125000000000, -0.125000000000, 0.125000000000, 0.125000000000, -0.125000000000, 0.125000000000, -0.125000000000, 0.125000000000, 0.125000000000, -0.125000000000, -0.125000000000, 0.125000000000, 0.125000000000, -0.125000000000, 0.125000000000, -0.125000000000, 0.125000000000, 0.125000000000, -0.125000000000, -0.125000000000, -0.125000000000, 0.125000000000, 0.125000000000, 0.125000000000, 0.125000000000, -0.125000000000, 0.125000000000, 0.125000000000, -0.125000000000, -0.125000000000, -0.125000000000, 0.125000000000, 0.125000000000, -0.125000000000, -0.125000000000, 0.125000000000, 0.125000000000, -0.125000000000, -0.125000000000, 0.125000000000, 0.125000000000, 0.125000000000, -0.125000000000, 0.125000000000, -0.125000000000, 0.125000000000, 0.125000000000, 0.125000000000, 0.125000000000, -0.125000000000, -0.125000000000, 0.125000000000, 0.125000000000, 0.125000000000, 0.125000000000, 0.125000000000, -0.125000000000, 0.125000000000, 0.125000000000, 0.125000000000, 0.125000000000, 0.125000000000, -0.125000000000, 0.125000000000, -0.125000000000, -0.125000000000, -0.125000000000, -0.125000000000, 0.125000000000, -0.125000000000, -0.125000000000, -0.125000000000, 0.125000000000, -0.125000000000, 0.125000000000, 0.125000000000, -0.125000000000, 0.125000000000, -0.125000000000, 0.125000000000, -0.125000000000, 0.125000000000, -0.125000000000, -0.125000000000, -0.125000000000, 0.125000000000, -0.125000000000, -0.125000000000, -0.125000000000, -0.125000000000, 0.125000000000, -0.125000000000, 0.125000000000, -0.125000000000, 0.125000000000, 0.125000000000, 0.125000000000, 0.125000000000, -0.125000000000, -0.125000000000, -0.125000000000, 0.125000000000, 0.125000000000, 0.125000000000, -0.125000000000, 0.125000000000, -0.125000000000, 0.125000000000, 0.125000000000, 0.125000000000, 0.125000000000, 0.125000000000, -0.125000000000, -0.125000000000, -0.125000000000, 0.125000000000, 0.125000000000, -0.125000000000, 0.125000000000, 0.125000000000, 0.125000000000, 0.125000000000, 0.125000000000, 0.125000000000, -0.125000000000, -0.125000000000, -0.125000000000, 0.125000000000, -0.125000000000, 0.125000000000, 0.125000000000, -0.125000000000, -0.125000000000, 0.125000000000, -0.125000000000, 0.125000000000, -0.125000000000, -0.125000000000, 0.125000000000, -0.125000000000, 0.125000000000, 0.125000000000, 0.125000000000, -0.125000000000, -0.125000000000, 0.125000000000, -0.125000000000, 0.125000000000, -0.125000000000, 0.125000000000, -0.125000000000, -0.125000000000, -0.125000000000, 0.125000000000, -0.125000000000, -0.125000000000, -0.125000000000, 0.125000000000, -0.125000000000, 0.125000000000, -0.125000000000, 0.125000000000, 0.125000000000, 0.125000000000, -0.125000000000, 0.125000000000, 0.125000000000, -0.125000000000, 0.125000000000, 0.125000000000, -0.125000000000, -0.125000000000, 0.125000000000, -0.125000000000, 0.125000000000, 0.125000000000, -0.125000000000, -0.125000000000, 0.125000000000, 0.125000000000, 0.125000000000, 0.125000000000, 0.125000000000, 0.125000000000, 0.125000000000, -0.125000000000, 0.125000000000, 0.125000000000, 0.125000000000, -0.125000000000, 0.125000000000, -0.125000000000, 0.125000000000, 0.125000000000, 0.125000000000, 0.125000000000, -0.125000000000, 0.125000000000, 0.125000000000, -0.125000000000, -0.125000000000, 0.125000000000, -0.125000000000, 0.125000000000, -0.125000000000, 0.125000000000, 0.125000000000, -0.125000000000, 0.125000000000, 0.125000000000, 0.125000000000, -0.125000000000, -0.125000000000, 0.125000000000, -0.125000000000, 0.125000000000, -0.125000000000, 0.125000000000, 0.125000000000, 0.125000000000, -0.125000000000, 0.125000000000, -0.125000000000, 0.125000000000, -0.125000000000, 0.125000000000, -0.125000000000, -0.125000000000, -0.125000000000, 0.125000000000, 0.125000000000, 0.125000000000, 0.125000000000, -0.125000000000, -0.125000000000, 0.125000000000, 0.125000000000, 0.125000000000, 0.125000000000, -0.125000000000, -0.125000000000, 0.125000000000, 0.125000000000, 0.125000000000, 0.125000000000, -0.125000000000, 0.125000000000, 0.125000000000, 0.125000000000, -0.125000000000, -0.125000000000, -0.125000000000, 0.125000000000, 0.125000000000, 0.125000000000, 0.125000000000, 0.125000000000, 0.125000000000, -0.125000000000, -0.125000000000, -0.125000000000, -0.125000000000, 0.125000000000, -0.125000000000, 0.125000000000, -0.125000000000, -0.125000000000, 0.125000000000, 0.125000000000, -0.125000000000, 0.125000000000, 0.125000000000, 0.125000000000, -0.125000000000, 0.125000000000, 0.125000000000, 0.125000000000, -0.125000000000, 0.125000000000, 0.125000000000, 0.125000000000, -0.125000000000, -0.125000000000, 0.125000000000, 0.125000000000, -0.125000000000, -0.125000000000, 0.125000000000, 0.125000000000, 0.125000000000, -0.125000000000, 0.125000000000, 0.125000000000, 0.125000000000, -0.125000000000, 0.125000000000, -0.125000000000, 0.125000000000, 0.125000000000, 0.125000000000, 0.125000000000, 0.125000000000, 0.125000000000, -0.125000000000, -0.125000000000, -0.125000000000, 0.125000000000, -0.125000000000, 0.125000000000, 0.125000000000, 0.125000000000, 0.125000000000, 0.125000000000, -0.125000000000, -0.125000000000, -0.125000000000, -0.125000000000, 0.125000000000, 0.125000000000, -0.125000000000, -0.125000000000, -0.125000000000, -0.125000000000, 0.125000000000, 0.125000000000, -0.125000000000, -0.125000000000, -0.125000000000, 0.125000000000, 0.125000000000, 0.125000000000, 0.125000000000, 0.125000000000, -0.125000000000, -0.125000000000, 0.125000000000, 0.125000000000, -0.125000000000, 0.125000000000, 0.125000000000, -0.125000000000, 0.125000000000, 0.125000000000, -0.125000000000, -0.125000000000, -0.125000000000, 0.125000000000, 0.125000000000, 0.125000000000, -0.125000000000, 0.125000000000, 0.125000000000, 0.125000000000, -0.125000000000, -0.125000000000, 0.125000000000, -0.125000000000, -0.125000000000, -0.125000000000, -0.125000000000, 0.125000000000, -0.125000000000, 0.125000000000, -0.125000000000, 0.125000000000, -0.125000000000, 0.125000000000, 0.125000000000, -0.125000000000, 0.125000000000, 0.125000000000, -0.125000000000, -0.125000000000, -0.125000000000, -0.125000000000, 0.125000000000, -0.125000000000, -0.125000000000, 0.125000000000, -0.125000000000, 0.125000000000, -0.125000000000, 0.125000000000, 0.125000000000, 0.125000000000, 0.125000000000, 0.125000000000, -0.125000000000, 0.125000000000, 0.125000000000, -0.125000000000, -0.125000000000, -0.125000000000, 0.125000000000, 0.125000000000, 0.125000000000, 0.125000000000, -0.125000000000, -0.125000000000, -0.125000000000, -0.125000000000, -0.125000000000, -0.125000000000, -0.125000000000, 0.125000000000, 0.125000000000, 0.125000000000, -0.125000000000, 0.125000000000, 0.125000000000, -0.125000000000, -0.125000000000, 0.125000000000, 0.125000000000, -0.125000000000, -0.125000000000, -0.125000000000, -0.125000000000, 0.125000000000, 0.125000000000, 0.125000000000, -0.125000000000, -0.125000000000, -0.125000000000, -0.125000000000, 0.125000000000, 0.125000000000, -0.125000000000, 0.125000000000, -0.125000000000, -0.125000000000, 0.125000000000, 0.125000000000, -0.125000000000, 0.125000000000, -0.125000000000, -0.125000000000, -0.125000000000, 0.125000000000, 0.125000000000, -0.125000000000, 0.125000000000, 0.125000000000, 0.125000000000, 0.125000000000, -0.125000000000, 0.125000000000, -0.125000000000, -0.125000000000, -0.125000000000, -0.125000000000, -0.125000000000, -0.125000000000, 0.125000000000, 0.125000000000, -0.125000000000, -0.125000000000, -0.125000000000, -0.125000000000, -0.125000000000, 0.125000000000, -0.125000000000, 0.125000000000, 0.125000000000, -0.125000000000, 0.125000000000, -0.125000000000, -0.125000000000, 0.125000000000, -0.125000000000, 0.125000000000, 0.125000000000, -0.125000000000, 0.125000000000, -0.125000000000, -0.125000000000, 0.125000000000, -0.125000000000, -0.125000000000, -0.125000000000, -0.125000000000, 0.125000000000, 0.125000000000, -0.125000000000, -0.125000000000, -0.125000000000, 0.125000000000, -0.125000000000, 0.125000000000, -0.125000000000, -0.125000000000, 0.125000000000, -0.125000000000, -0.125000000000, 0.125000000000, -0.125000000000, -0.125000000000, -0.125000000000, -0.125000000000, 0.125000000000, 0.125000000000, 0.125000000000, -0.125000000000, 0.125000000000, -0.125000000000, 0.125000000000, 0.125000000000, -0.125000000000, -0.125000000000, 0.125000000000, -0.125000000000, -0.125000000000, -0.125000000000, 0.125000000000, -0.125000000000, -0.125000000000, -0.125000000000, 0.125000000000, 0.125000000000, -0.125000000000, 0.125000000000, 0.125000000000, -0.125000000000, 0.125000000000, 0.125000000000, 0.125000000000, -0.125000000000, 0.125000000000, -0.125000000000, 0.125000000000, -0.125000000000, -0.125000000000, -0.125000000000, 0.125000000000, -0.125000000000, -0.125000000000, 0.125000000000, -0.125000000000, -0.125000000000, -0.125000000000, -0.125000000000, 0.125000000000, 0.125000000000, -0.125000000000, -0.125000000000, -0.125000000000, 0.125000000000, -0.125000000000, -0.125000000000, -0.125000000000, -0.125000000000, -0.125000000000, -0.125000000000, -0.125000000000, -0.125000000000, -0.125000000000, -0.125000000000, -0.125000000000, 0.125000000000, -0.125000000000, 0.125000000000, 0.125000000000, -0.125000000000, 0.125000000000, 0.125000000000, -0.125000000000, 0.125000000000, -0.125000000000, 0.125000000000, -0.125000000000, 0.125000000000, -0.125000000000, -0.125000000000, -0.125000000000, -0.125000000000, -0.125000000000, 0.125000000000, -0.125000000000, -0.125000000000, 0.125000000000, 0.125000000000, -0.125000000000, 0.125000000000, -0.125000000000, -0.125000000000, 0.125000000000, -0.125000000000, -0.125000000000, -0.125000000000, 0.125000000000, -0.125000000000, 0.125000000000, 0.125000000000, 0.125000000000, 0.125000000000, 0.125000000000, -0.125000000000, 0.125000000000, 0.125000000000, -0.125000000000, -0.125000000000, -0.125000000000, -0.125000000000, 0.125000000000, -0.125000000000, -0.125000000000, 0.125000000000, -0.125000000000, 0.125000000000, 0.125000000000, -0.125000000000, 0.125000000000, 0.125000000000, -0.125000000000, 0.125000000000, -0.125000000000, 0.125000000000, 0.125000000000, -0.125000000000, 0.125000000000, -0.125000000000, 0.125000000000, 0.125000000000, 0.125000000000, 0.125000000000, -0.125000000000, -0.125000000000, -0.125000000000, 0.125000000000, -0.125000000000, -0.125000000000, -0.125000000000, 0.125000000000, -0.125000000000, -0.125000000000, 0.125000000000, -0.125000000000, 0.125000000000, 0.125000000000, -0.125000000000, 0.125000000000, 0.125000000000, 0.125000000000, 0.125000000000, -0.125000000000, -0.125000000000, 0.125000000000, 0.125000000000, -0.125000000000, 0.125000000000, -0.125000000000, 0.125000000000, -0.125000000000, 0.125000000000, 0.125000000000, -0.125000000000, 0.125000000000, 0.125000000000, -0.125000000000, 0.125000000000, -0.125000000000, 0.125000000000, 0.125000000000, -0.125000000000, 0.125000000000, 0.125000000000, 0.125000000000, 0.125000000000, -0.125000000000, -0.125000000000, 0.125000000000, -0.125000000000, 0.125000000000, 0.125000000000, 0.125000000000, 0.125000000000, -0.125000000000, 0.125000000000, -0.125000000000, 0.125000000000, -0.125000000000, -0.125000000000, -0.125000000000, 0.125000000000, 0.125000000000, 0.125000000000, -0.125000000000, -0.125000000000, 0.125000000000, -0.125000000000, -0.125000000000, 0.125000000000, -0.125000000000, -0.125000000000, -0.125000000000, 0.125000000000, 0.125000000000, 0.125000000000, 0.125000000000, -0.125000000000, -0.125000000000, 0.125000000000, 0.125000000000, -0.125000000000, -0.125000000000, 0.125000000000, 0.125000000000, 0.125000000000, -0.125000000000, -0.125000000000, -0.125000000000, -0.125000000000, -0.125000000000, -0.125000000000, -0.125000000000, 0.125000000000, -0.125000000000, 0.125000000000, -0.125000000000, -0.125000000000, 0.125000000000, 0.125000000000, 0.125000000000, 0.125000000000, 0.125000000000, 0.125000000000, 0.125000000000, -0.125000000000, 0.125000000000, 0.125000000000, 0.125000000000, 0.125000000000, -0.125000000000, -0.125000000000, 0.125000000000, 0.125000000000, -0.125000000000, 0.125000000000, -0.125000000000, 0.125000000000, 0.125000000000, 0.125000000000, -0.125000000000, -0.125000000000, -0.125000000000, -0.125000000000, -0.125000000000, 0.125000000000, 0.125000000000, -0.125000000000, -0.125000000000, -0.125000000000, 0.125000000000, 0.125000000000, -0.125000000000, -0.125000000000, 0.125000000000, 0.125000000000, -0.125000000000, 0.125000000000, -0.125000000000, -0.125000000000, -0.125000000000, -0.125000000000, 0.125000000000, -0.125000000000, 0.125000000000, -0.125000000000, -0.125000000000, 0.125000000000, -0.125000000000, -0.125000000000, -0.125000000000, -0.125000000000, 0.125000000000, -0.125000000000, -0.125000000000, -0.125000000000, -0.125000000000, 0.125000000000, -0.125000000000, 0.125000000000, -0.125000000000, 0.125000000000, 0.125000000000, -0.125000000000, -0.125000000000, 0.125000000000, 0.125000000000, 0.125000000000, -0.125000000000, 0.125000000000, -0.125000000000, 0.125000000000, 0.125000000000, -0.125000000000, 0.125000000000, -0.125000000000, 0.125000000000, -0.125000000000, 0.125000000000, -0.125000000000, -0.125000000000, -0.125000000000, 0.125000000000, -0.125000000000, -0.125000000000, -0.125000000000, 0.125000000000, 0.125000000000, -0.125000000000, 0.125000000000, 0.125000000000, 0.125000000000, -0.125000000000, 0.125000000000, 0.125000000000, -0.125000000000, 0.125000000000, -0.125000000000, 0.125000000000, -0.125000000000, -0.125000000000, 0.125000000000, 0.125000000000, -0.125000000000, -0.125000000000, -0.125000000000, 0.125000000000, -0.125000000000, -0.125000000000, 0.125000000000, 0.125000000000, -0.125000000000, -0.125000000000, -0.125000000000, 0.125000000000, -0.125000000000, -0.125000000000, 0.125000000000, 0.125000000000, -0.125000000000, -0.125000000000, -0.125000000000, 0.125000000000, 0.125000000000, -0.125000000000, 0.125000000000, 0.125000000000, -0.125000000000, -0.125000000000, -0.125000000000, -0.125000000000, 0.125000000000, -0.125000000000, -0.125000000000, 0.125000000000, -0.125000000000, 0.125000000000, -0.125000000000, -0.125000000000, -0.125000000000, 0.125000000000, -0.125000000000, -0.125000000000, -0.125000000000, -0.125000000000, -0.125000000000, 0.125000000000, -0.125000000000, 0.125000000000, 0.125000000000, -0.125000000000, 0.125000000000, 0.125000000000, -0.125000000000, -0.125000000000, -0.125000000000, 0.125000000000, -0.125000000000, 0.125000000000, 0.125000000000, 0.125000000000, 0.125000000000, 0.125000000000, 0.125000000000, -0.125000000000, 0.125000000000, -0.125000000000, -0.125000000000, 0.125000000000, -0.125000000000, 0.125000000000, 0.125000000000, -0.125000000000, -0.125000000000, 0.125000000000, -0.125000000000, 0.125000000000, -0.125000000000, -0.125000000000, -0.125000000000, -0.125000000000, 0.125000000000, 0.125000000000, -0.125000000000, 0.125000000000, -0.125000000000, 0.125000000000, -0.125000000000, 0.125000000000, 0.125000000000, -0.125000000000, 0.125000000000, 0.125000000000, -0.125000000000, -0.125000000000, 0.125000000000, -0.125000000000, 0.125000000000, 0.125000000000, -0.125000000000, 0.125000000000, 0.125000000000, -0.125000000000, -0.125000000000, -0.125000000000, -0.125000000000, 0.125000000000, -0.125000000000, 0.125000000000, 0.125000000000, -0.125000000000, -0.125000000000, 0.125000000000, 0.125000000000, 0.125000000000, -0.125000000000, -0.125000000000, -0.125000000000, -0.125000000000, -0.125000000000, 0.125000000000, 0.125000000000, 0.125000000000, -0.125000000000, 0.125000000000, 0.125000000000, 0.125000000000, -0.125000000000, -0.125000000000, 0.125000000000, 0.125000000000, -0.125000000000, 0.125000000000, 0.125000000000, -0.125000000000, -0.125000000000, -0.125000000000, 0.125000000000, 0.125000000000, -0.125000000000, -0.125000000000, 0.125000000000, 0.125000000000, 0.125000000000, 0.125000000000, -0.125000000000, 0.125000000000, -0.125000000000, 0.125000000000, -0.125000000000, 0.125000000000, 0.125000000000, 0.125000000000, 0.125000000000, -0.125000000000, -0.125000000000, 0.125000000000, -0.125000000000, -0.125000000000, 0.125000000000, -0.125000000000, -0.125000000000, 0.125000000000, -0.125000000000, -0.125000000000, 0.125000000000, 0.125000000000, 0.125000000000, 0.125000000000, -0.125000000000, -0.125000000000, 0.125000000000, -0.125000000000, 0.125000000000, -0.125000000000, 0.125000000000, -0.125000000000, 0.125000000000, -0.125000000000, 0.125000000000, 0.125000000000, 0.125000000000, -0.125000000000, 0.125000000000, -0.125000000000, -0.125000000000, -0.125000000000, 0.125000000000, -0.125000000000, 0.125000000000, 0.125000000000, -0.125000000000, -0.125000000000, 0.125000000000, -0.125000000000, -0.125000000000, -0.125000000000, 0.125000000000, -0.125000000000, 0.125000000000, 0.125000000000, 0.125000000000, 0.125000000000, -0.125000000000, -0.125000000000, 0.125000000000, -0.125000000000, -0.125000000000, 0.125000000000, 0.125000000000, 0.125000000000, -0.125000000000, -0.125000000000, -0.125000000000, 0.125000000000, -0.125000000000, 0.125000000000, 0.125000000000, -0.125000000000, -0.125000000000, -0.125000000000, -0.125000000000, 0.125000000000, 0.125000000000, -0.125000000000, 0.125000000000, 0.125000000000, -0.125000000000, -0.125000000000, 0.125000000000, 0.125000000000, 0.125000000000, -0.125000000000, -0.125000000000, 0.125000000000, 0.125000000000, -0.125000000000, -0.125000000000, -0.125000000000, -0.125000000000, 0.125000000000, 0.125000000000, -0.125000000000, -0.125000000000, -0.125000000000, 0.125000000000, 0.125000000000, 0.125000000000, 0.125000000000, 0.125000000000, 0.125000000000, 0.125000000000, 0.125000000000, 0.125000000000, 0.125000000000, 0.125000000000, -0.125000000000, -0.125000000000, 0.125000000000, -0.125000000000, 0.125000000000, 0.125000000000, 0.125000000000, -0.125000000000, 0.125000000000, 0.125000000000, -0.125000000000, -0.125000000000, -0.125000000000, -0.125000000000, 0.125000000000, -0.125000000000, -0.125000000000, -0.125000000000, -0.125000000000, -0.125000000000, -0.125000000000, 0.125000000000, 0.125000000000, -0.125000000000, 0.125000000000, -0.125000000000, 0.125000000000, 0.125000000000, 0.125000000000, -0.125000000000, 0.125000000000, -0.125000000000, -0.125000000000, 0.125000000000, -0.125000000000, 0.125000000000, -0.125000000000, 0.125000000000, 0.125000000000, 0.125000000000, -0.125000000000, 0.125000000000, -0.125000000000, -0.125000000000, 0.125000000000, 0.125000000000, 0.125000000000, -0.125000000000, 0.125000000000, -0.125000000000, 0.125000000000, 0.125000000000, 0.125000000000, 0.125000000000, 0.125000000000, -0.125000000000, -0.125000000000, 0.125000000000, 0.125000000000, -0.125000000000, 0.125000000000, -0.125000000000, 0.125000000000, -0.125000000000, 0.125000000000, 0.125000000000, 0.125000000000, -0.125000000000, 0.125000000000, 0.125000000000, -0.125000000000, 0.125000000000, -0.125000000000, 0.125000000000, 0.125000000000, -0.125000000000, -0.125000000000, 0.125000000000, 0.125000000000, 0.125000000000, 0.125000000000, 0.125000000000, -0.125000000000, 0.125000000000, 0.125000000000, 0.125000000000, -0.125000000000, -0.125000000000, 0.125000000000, -0.125000000000, 0.125000000000, 0.125000000000, 0.125000000000, -0.125000000000, 0.125000000000, -0.125000000000, -0.125000000000, -0.125000000000, 0.125000000000, -0.125000000000, -0.125000000000, 0.125000000000, -0.125000000000, 0.125000000000, -0.125000000000, 0.125000000000, -0.125000000000, -0.125000000000, -0.125000000000, -0.125000000000, -0.125000000000, -0.125000000000, 0.125000000000, 0.125000000000, -0.125000000000, -0.125000000000, 0.125000000000, -0.125000000000, -0.125000000000, 0.125000000000, -0.125000000000, -0.125000000000, -0.125000000000, -0.125000000000, -0.125000000000, -0.125000000000, -0.125000000000, -0.125000000000, -0.125000000000, -0.125000000000, 0.125000000000, 0.125000000000, -0.125000000000, 0.125000000000, -0.125000000000, -0.125000000000, 0.125000000000, -0.125000000000, -0.125000000000, 0.125000000000, 0.125000000000, -0.125000000000, -0.125000000000, 0.125000000000, 0.125000000000, -0.125000000000, -0.125000000000, -0.125000000000, 0.125000000000, 0.125000000000, -0.125000000000, -0.125000000000, -0.125000000000, 0.125000000000, 0.125000000000, 0.125000000000, -0.125000000000, -0.125000000000, 0.125000000000, -0.125000000000, 0.125000000000, -0.125000000000, -0.125000000000, 0.125000000000, -0.125000000000, -0.125000000000, 0.125000000000, 0.125000000000, -0.125000000000, 0.125000000000, 0.125000000000, -0.125000000000, 0.125000000000, 0.125000000000, 0.125000000000, 0.125000000000, -0.125000000000, -0.125000000000, -0.125000000000, 0.125000000000, -0.125000000000, 0.125000000000, 0.125000000000, -0.125000000000, -0.125000000000, -0.125000000000, 0.125000000000, -0.125000000000, 0.125000000000, -0.125000000000, -0.125000000000, 0.125000000000, -0.125000000000, -0.125000000000, 0.125000000000, 0.125000000000, -0.125000000000, 0.125000000000, -0.125000000000, 0.125000000000, -0.125000000000, 0.125000000000, -0.125000000000, -0.125000000000, -0.125000000000, 0.125000000000, -0.125000000000, -0.125000000000, -0.125000000000, 0.125000000000, 0.125000000000, -0.125000000000, -0.125000000000, 0.125000000000, 0.125000000000, -0.125000000000, -0.125000000000, -0.125000000000, -0.125000000000, -0.125000000000, -0.125000000000, 0.125000000000, -0.125000000000, -0.125000000000, 0.125000000000, -0.125000000000, -0.125000000000, 0.125000000000, -0.125000000000, 0.125000000000, -0.125000000000, 0.125000000000, 0.125000000000, 0.125000000000, 0.125000000000, 0.125000000000, 0.125000000000, -0.125000000000, -0.125000000000, 0.125000000000, -0.125000000000, 0.125000000000, 0.125000000000, -0.125000000000, 0.125000000000, 0.125000000000, -0.125000000000, 0.125000000000, -0.125000000000, -0.125000000000, 0.125000000000, 0.125000000000, -0.125000000000, 0.125000000000, 0.125000000000, -0.125000000000, -0.125000000000, -0.125000000000, -0.125000000000, -0.125000000000, -0.125000000000, -0.125000000000, 0.125000000000, 0.125000000000, -0.125000000000, 0.125000000000, -0.125000000000, 0.125000000000, 0.125000000000, -0.125000000000, -0.125000000000, 0.125000000000, -0.125000000000, -0.125000000000, -0.125000000000, 0.125000000000, -0.125000000000, 0.125000000000, -0.125000000000, -0.125000000000, -0.125000000000, -0.125000000000, 0.125000000000, 0.125000000000, -0.125000000000, -0.125000000000, 0.125000000000, 0.125000000000, -0.125000000000, 0.125000000000, -0.125000000000, 0.125000000000, 0.125000000000, -0.125000000000, -0.125000000000, 0.125000000000, 0.125000000000, -0.125000000000, -0.125000000000, 0.125000000000, -0.125000000000, -0.125000000000, 0.125000000000, -0.125000000000, -0.125000000000, 0.125000000000, 0.125000000000, 0.125000000000, -0.125000000000, -0.125000000000, 0.125000000000, -0.125000000000, -0.125000000000, 0.125000000000, 0.125000000000, 0.125000000000, 0.125000000000, -0.125000000000, -0.125000000000, 0.125000000000, 0.125000000000, -0.125000000000, 0.125000000000, -0.125000000000, 0.125000000000, -0.125000000000, 0.125000000000, -0.125000000000, -0.125000000000, 0.125000000000, -0.125000000000, -0.125000000000, -0.125000000000, -0.125000000000, -0.125000000000, -0.125000000000, 0.125000000000, 0.125000000000, 0.125000000000, -0.125000000000, -0.125000000000, 0.125000000000, -0.125000000000, 0.125000000000, -0.125000000000, -0.125000000000, -0.125000000000, 0.125000000000, -0.125000000000, -0.125000000000, -0.125000000000, -0.125000000000, -0.125000000000, -0.125000000000, 0.125000000000, -0.125000000000, 0.125000000000, -0.125000000000, 0.125000000000, -0.125000000000, 0.125000000000, 0.125000000000, 0.125000000000, -0.125000000000, 0.125000000000, 0.125000000000, -0.125000000000, 0.125000000000, -0.125000000000, -0.125000000000, -0.125000000000, -0.125000000000, -0.125000000000, -0.125000000000, 0.125000000000, -0.125000000000, 0.125000000000, -0.125000000000, 0.125000000000, -0.125000000000, -0.125000000000, -0.125000000000, 0.125000000000, -0.125000000000, 0.125000000000, 0.125000000000, 0.125000000000, -0.125000000000, 0.125000000000, -0.125000000000, -0.125000000000, 0.125000000000, 0.125000000000, -0.125000000000, -0.125000000000, -0.125000000000, -0.125000000000, -0.125000000000, -0.125000000000, -0.125000000000, -0.125000000000, -0.125000000000, 0.125000000000, 0.125000000000, 0.125000000000, -0.125000000000, 0.125000000000, -0.125000000000, 0.125000000000, -0.125000000000, 0.125000000000, -0.125000000000, 0.125000000000, 0.125000000000, 0.125000000000, -0.125000000000, 0.125000000000, -0.125000000000, -0.125000000000, -0.125000000000, 0.125000000000, -0.125000000000, -0.125000000000, -0.125000000000, -0.125000000000, -0.125000000000, -0.125000000000, -0.125000000000, 0.125000000000, -0.125000000000, -0.125000000000, 0.125000000000, -0.125000000000, -0.125000000000, 0.125000000000, -0.125000000000, 0.125000000000, 0.125000000000, 0.125000000000, -0.125000000000, 0.125000000000, 0.125000000000, 0.125000000000, 0.125000000000, 0.125000000000, -0.125000000000, -0.125000000000, -0.125000000000, -0.125000000000, 0.125000000000, -0.125000000000, -0.125000000000, -0.125000000000, -0.125000000000, -0.125000000000, -0.125000000000, 0.125000000000, 0.125000000000, 0.125000000000, -0.125000000000, -0.125000000000, 0.125000000000, -0.125000000000, 0.125000000000, -0.125000000000, -0.125000000000, -0.125000000000, 0.125000000000, 0.125000000000, -0.125000000000, 0.125000000000, -0.125000000000, 0.125000000000, -0.125000000000, -0.125000000000, 0.125000000000, 0.125000000000, 0.125000000000, -0.125000000000, 0.125000000000, -0.125000000000, 0.125000000000, -0.125000000000, 0.125000000000, -0.125000000000, -0.125000000000, -0.125000000000, 0.125000000000, -0.125000000000, 0.125000000000, -0.125000000000, 0.125000000000, 0.125000000000, -0.125000000000, -0.125000000000, 0.125000000000, 0.125000000000, 0.125000000000, -0.125000000000, -0.125000000000, -0.125000000000, -0.125000000000, -0.125000000000, -0.125000000000, 0.125000000000, -0.125000000000, 0.125000000000, -0.125000000000, 0.125000000000, -0.125000000000, 0.125000000000, 0.125000000000, -0.125000000000, -0.125000000000, 0.125000000000, 0.125000000000, 0.125000000000, 0.125000000000, -0.125000000000, 0.125000000000, -0.125000000000, -0.125000000000, -0.125000000000, -0.125000000000, 0.125000000000, -0.125000000000, 0.125000000000, -0.125000000000, -0.125000000000, -0.125000000000, -0.125000000000, -0.125000000000, -0.125000000000, -0.125000000000, -0.125000000000, 0.125000000000, -0.125000000000, 0.125000000000, 0.125000000000, -0.125000000000, -0.125000000000, 0.125000000000, -0.125000000000, 0.125000000000, -0.125000000000, -0.125000000000, -0.125000000000, -0.125000000000, 0.125000000000, -0.125000000000, 0.125000000000, -0.125000000000, 0.125000000000, 0.125000000000, -0.125000000000, 0.125000000000, 0.125000000000, -0.125000000000, -0.125000000000, -0.125000000000, -0.125000000000, -0.125000000000, -0.125000000000, -0.125000000000, -0.125000000000, 0.125000000000, 0.125000000000, 0.125000000000, -0.125000000000, -0.125000000000, -0.125000000000, 0.125000000000, -0.125000000000, -0.125000000000, 0.125000000000, -0.125000000000, -0.125000000000, 0.125000000000, -0.125000000000, 0.125000000000, 0.125000000000, 0.125000000000, -0.125000000000, -0.125000000000, -0.125000000000, -0.125000000000, -0.125000000000, -0.125000000000, 0.125000000000, -0.125000000000, -0.125000000000, 0.125000000000, 0.125000000000, -0.125000000000, 0.125000000000, -0.125000000000, 0.125000000000, -0.125000000000, 0.125000000000, -0.125000000000, -0.125000000000, 0.125000000000, -0.125000000000, 0.125000000000, -0.125000000000, 0.125000000000, -0.125000000000, -0.125000000000, -0.125000000000, -0.125000000000, -0.125000000000, 0.125000000000, -0.125000000000, -0.125000000000, 0.125000000000, 0.125000000000, 0.125000000000, -0.125000000000, 0.125000000000, -0.125000000000, 0.125000000000, 0.125000000000, 0.125000000000, -0.125000000000, -0.125000000000, -0.125000000000, -0.125000000000, -0.125000000000, -0.125000000000, 0.125000000000, -0.125000000000, -0.125000000000, -0.125000000000, -0.125000000000, -0.125000000000, -0.125000000000, 0.125000000000, 0.125000000000, 0.125000000000, 0.125000000000, 0.125000000000, 0.125000000000, -0.125000000000, -0.125000000000, 0.125000000000, 0.125000000000, -0.125000000000, 0.125000000000, -0.125000000000, -0.125000000000, 0.125000000000, -0.125000000000, 0.125000000000, -0.125000000000, 0.125000000000, 0.125000000000, -0.125000000000, -0.125000000000, -0.125000000000, 0.125000000000, 0.125000000000, -0.125000000000, -0.125000000000, 0.125000000000, 0.125000000000, -0.125000000000, 0.125000000000, -0.125000000000, 0.125000000000, -0.125000000000, -0.125000000000, -0.125000000000, 0.125000000000, 0.125000000000, 0.125000000000, -0.125000000000, 0.125000000000, -0.125000000000, -0.125000000000, -0.125000000000, 0.125000000000, -0.125000000000, 0.125000000000, -0.125000000000, 0.125000000000, -0.125000000000, -0.125000000000, -0.125000000000, -0.125000000000, -0.125000000000, 0.125000000000, 0.125000000000, 0.125000000000, 0.125000000000, -0.125000000000, 0.125000000000, 0.125000000000, 0.125000000000, -0.125000000000, -0.125000000000, -0.125000000000, 0.125000000000, 0.125000000000, 0.125000000000, 0.125000000000, 0.125000000000, 0.125000000000, -0.125000000000, -0.125000000000, -0.125000000000, -0.125000000000, -0.125000000000, -0.125000000000, 0.125000000000, 0.125000000000, 0.125000000000, 0.125000000000, -0.125000000000, -0.125000000000, 0.125000000000, 0.125000000000, 0.125000000000, -0.125000000000, -0.125000000000, -0.125000000000, 0.125000000000, -0.125000000000, 0.125000000000, -0.125000000000, 0.125000000000, 0.125000000000, -0.125000000000, -0.125000000000, 0.125000000000, 0.125000000000, -0.125000000000, -0.125000000000, 0.125000000000, 0.125000000000, 0.125000000000, 0.125000000000, 0.125000000000, -0.125000000000, -0.125000000000, -0.125000000000, -0.125000000000, -0.125000000000, 0.125000000000, -0.125000000000, 0.125000000000, 0.125000000000, 0.125000000000, -0.125000000000, 0.125000000000, 0.125000000000, 0.125000000000, -0.125000000000, 0.125000000000, -0.125000000000, -0.125000000000, 0.125000000000, -0.125000000000, -0.125000000000, 0.125000000000, 0.125000000000, 0.125000000000, 0.125000000000, 0.125000000000, 0.125000000000, -0.125000000000, 0.125000000000, 0.125000000000, -0.125000000000, -0.125000000000, -0.125000000000, 0.125000000000, 0.125000000000, 0.125000000000, 0.125000000000, 0.125000000000, -0.125000000000, 0.125000000000, -0.125000000000, 0.125000000000, 0.125000000000, 0.125000000000, -0.125000000000, -0.125000000000, 0.125000000000, -0.125000000000, -0.125000000000, 0.125000000000, 0.125000000000, -0.125000000000, -0.125000000000, -0.125000000000, -0.125000000000, -0.125000000000, 0.125000000000, -0.125000000000, -0.125000000000, 0.125000000000, 0.125000000000, 0.125000000000, -0.125000000000, 0.125000000000, 0.125000000000, -0.125000000000, 0.125000000000, -0.125000000000, -0.125000000000, 0.125000000000, 0.125000000000, 0.125000000000, 0.125000000000, 0.125000000000, 0.125000000000, 0.125000000000, 0.125000000000, -0.125000000000, -0.125000000000, -0.125000000000, -0.125000000000, -0.125000000000, -0.125000000000, 0.125000000000, 0.125000000000, 0.125000000000, -0.125000000000, -0.125000000000, 0.125000000000, 0.125000000000, 0.125000000000, 0.125000000000, 0.125000000000, 0.125000000000, -0.125000000000, -0.125000000000, 0.125000000000, -0.125000000000, 0.125000000000, -0.125000000000, 0.125000000000, 0.125000000000, 0.125000000000, -0.125000000000, -0.125000000000, -0.125000000000, -0.125000000000, -0.125000000000, -0.125000000000, 0.125000000000, -0.125000000000, 0.125000000000, -0.125000000000, -0.125000000000, -0.125000000000, 0.125000000000, -0.125000000000, -0.125000000000, -0.125000000000, 0.125000000000, 0.125000000000, -0.125000000000, -0.125000000000, 0.125000000000, -0.125000000000, 0.125000000000, -0.125000000000, 0.125000000000, -0.125000000000, 0.125000000000, -0.125000000000, -0.125000000000, 0.125000000000, 0.125000000000, 0.125000000000, -0.125000000000, -0.125000000000, 0.125000000000, -0.125000000000, -0.125000000000, 0.125000000000, -0.125000000000, -0.125000000000, 0.125000000000, -0.125000000000, 0.125000000000, -0.125000000000, -0.125000000000, -0.125000000000, 0.125000000000, -0.125000000000, 0.125000000000, 0.125000000000, -0.125000000000, -0.125000000000, -0.125000000000, 0.125000000000, -0.125000000000, -0.125000000000, 0.125000000000, 0.125000000000, 0.125000000000, 0.125000000000, -0.125000000000, -0.125000000000, 0.125000000000, -0.125000000000, -0.125000000000, 0.125000000000, -0.125000000000, -0.125000000000, 0.125000000000, -0.125000000000, 0.125000000000, -0.125000000000, 0.125000000000, -0.125000000000, -0.125000000000, -0.125000000000, -0.125000000000, -0.125000000000, -0.125000000000, -0.125000000000, -0.125000000000, 0.125000000000, 0.125000000000, 0.125000000000, -0.125000000000, 0.125000000000, -0.125000000000, -0.125000000000, -0.125000000000, 0.125000000000, 0.125000000000, 0.125000000000, -0.125000000000, -0.125000000000, -0.125000000000, 0.125000000000, -0.125000000000, 0.125000000000, -0.125000000000, 0.125000000000, 0.125000000000, -0.125000000000, -0.125000000000, -0.125000000000, 0.125000000000, -0.125000000000, -0.125000000000, -0.125000000000, 0.125000000000, 0.125000000000, 0.125000000000, -0.125000000000, 0.125000000000, 0.125000000000, -0.125000000000, -0.125000000000, -0.125000000000, 0.125000000000, -0.125000000000, 0.125000000000, -0.125000000000, 0.125000000000, -0.125000000000, 0.125000000000, 0.125000000000, 0.125000000000, -0.125000000000, 0.125000000000, -0.125000000000, 0.125000000000, 0.125000000000, -0.125000000000, -0.125000000000, 0.125000000000, -0.125000000000, -0.125000000000, 0.125000000000, 0.125000000000, 0.125000000000, 0.125000000000, 0.125000000000, -0.125000000000, -0.125000000000, 0.125000000000, -0.125000000000, -0.125000000000, 0.125000000000, 0.125000000000, 0.125000000000, -0.125000000000, 0.125000000000, -0.125000000000, 0.125000000000, 0.125000000000, -0.125000000000, -0.125000000000, 0.125000000000, 0.125000000000, 0.125000000000, -0.125000000000, 0.125000000000, -0.125000000000, -0.125000000000, -0.125000000000, 0.125000000000, 0.125000000000, -0.125000000000, -0.125000000000, 0.125000000000, -0.125000000000, 0.125000000000, -0.125000000000, 0.125000000000, -0.125000000000, -0.125000000000, -0.125000000000, 0.125000000000, 0.125000000000, -0.125000000000, 0.125000000000, -0.125000000000, 0.125000000000, -0.125000000000, -0.125000000000, 0.125000000000, -0.125000000000, 0.125000000000, -0.125000000000, 0.125000000000, 0.125000000000, -0.125000000000, 0.125000000000, 0.125000000000, 0.125000000000, 0.125000000000, -0.125000000000, 0.125000000000, -0.125000000000, 0.125000000000, 0.125000000000, -0.125000000000, -0.125000000000, -0.125000000000, 0.125000000000, -0.125000000000, 0.125000000000, 0.125000000000, 0.125000000000, 0.125000000000, -0.125000000000, -0.125000000000, -0.125000000000, -0.125000000000, 0.125000000000, -0.125000000000, -0.125000000000, 0.125000000000, 0.125000000000, 0.125000000000, 0.125000000000, 0.125000000000, 0.125000000000, 0.125000000000, 0.125000000000, -0.125000000000, 0.125000000000, -0.125000000000, -0.125000000000, 0.125000000000, 0.125000000000, -0.125000000000, 0.125000000000, -0.125000000000, -0.125000000000, -0.125000000000, 0.125000000000, 0.125000000000, -0.125000000000, -0.125000000000, -0.125000000000, 0.125000000000, -0.125000000000, 0.125000000000, -0.125000000000, 0.125000000000, 0.125000000000, 0.125000000000, -0.125000000000, 0.125000000000, 0.125000000000, -0.125000000000, -0.125000000000, 0.125000000000, -0.125000000000, 0.125000000000, 0.125000000000, 0.125000000000, -0.125000000000, -0.125000000000, 0.125000000000, 0.125000000000, 0.125000000000, 0.125000000000, 0.125000000000, 0.125000000000, 0.125000000000, -0.125000000000, 0.125000000000, -0.125000000000, -0.125000000000, 0.125000000000, -0.125000000000, 0.125000000000, 0.125000000000, 0.125000000000, -0.125000000000, -0.125000000000, 0.125000000000, -0.125000000000, -0.125000000000, 0.125000000000, 0.125000000000, -0.125000000000, 0.125000000000, -0.125000000000, -0.125000000000, -0.125000000000, -0.125000000000, -0.125000000000, -0.125000000000, 0.125000000000, -0.125000000000, 0.125000000000, 0.125000000000, 0.125000000000, -0.125000000000, -0.125000000000, -0.125000000000, 0.125000000000, -0.125000000000, -0.125000000000, -0.125000000000, -0.125000000000, -0.125000000000, 0.125000000000, -0.125000000000, 0.125000000000, 0.125000000000, 0.125000000000, 0.125000000000, 0.125000000000, 0.125000000000, -0.125000000000, 0.125000000000, 0.125000000000, -0.125000000000, -0.125000000000, -0.125000000000, -0.125000000000, 0.125000000000, 0.125000000000, 0.125000000000, -0.125000000000, -0.125000000000, -0.125000000000, -0.125000000000, 0.125000000000, 0.125000000000, 0.125000000000, 0.125000000000, 0.125000000000, -0.125000000000, 0.125000000000, -0.125000000000, 0.125000000000, 0.125000000000, 0.125000000000, 0.125000000000, 0.125000000000, 0.125000000000, -0.125000000000, 0.125000000000, -0.125000000000, 0.125000000000, -0.125000000000, 0.125000000000, 0.125000000000, 0.125000000000, 0.125000000000, 0.125000000000, 0.125000000000, -0.125000000000, 0.125000000000, 0.125000000000, 0.125000000000, -0.125000000000, 0.125000000000, -0.125000000000, -0.125000000000, -0.125000000000, 0.125000000000, -0.125000000000, 0.125000000000, 0.125000000000, 0.125000000000, -0.125000000000, -0.125000000000, -0.125000000000, 0.125000000000, 0.125000000000, 0.125000000000, 0.125000000000, 0.125000000000, 0.125000000000, -0.125000000000, -0.125000000000, 0.125000000000, 0.125000000000, -0.125000000000, 0.125000000000, -0.125000000000, -0.125000000000, -0.125000000000, -0.125000000000, -0.125000000000, -0.125000000000, -0.125000000000, 0.125000000000, 0.125000000000, 0.125000000000, 0.125000000000, 0.125000000000, -0.125000000000, 0.125000000000, 0.125000000000, -0.125000000000, 0.125000000000, -0.125000000000, -0.125000000000, -0.125000000000, 0.125000000000, 0.125000000000, 0.125000000000, -0.125000000000, -0.125000000000, -0.125000000000, 0.125000000000, -0.125000000000, -0.125000000000, 0.125000000000, 0.125000000000, -0.125000000000, 0.125000000000, -0.125000000000, 0.125000000000, 0.125000000000, -0.125000000000, 0.125000000000, 0.125000000000, -0.125000000000, -0.125000000000, -0.125000000000, 0.125000000000, 0.125000000000, -0.125000000000, -0.125000000000, 0.125000000000, 0.125000000000, 0.125000000000, 0.125000000000, 0.125000000000, -0.125000000000, 0.125000000000, 0.125000000000, 0.125000000000, -0.125000000000, 0.125000000000, -0.125000000000, -0.125000000000, -0.125000000000, 0.125000000000, -0.125000000000, 0.125000000000, 0.125000000000, 0.125000000000, 0.125000000000, 0.125000000000, -0.125000000000, 0.125000000000, 0.125000000000, -0.125000000000, 0.125000000000, 0.125000000000, 0.125000000000, 0.125000000000, -0.125000000000, -0.125000000000, -0.125000000000, -0.125000000000, 0.125000000000, 0.125000000000, -0.125000000000, -0.125000000000, 0.125000000000, -0.125000000000, 0.125000000000, 0.125000000000, 0.125000000000, 0.125000000000, 0.125000000000, -0.125000000000, 0.125000000000, 0.125000000000, -0.125000000000, -0.125000000000, -0.125000000000, -0.125000000000, 0.125000000000, -0.125000000000, -0.125000000000, -0.125000000000, -0.125000000000, -0.125000000000, 0.125000000000, 0.125000000000, 0.125000000000, -0.125000000000, 0.125000000000, -0.125000000000, -0.125000000000, -0.125000000000, 0.125000000000, 0.125000000000, -0.125000000000, -0.125000000000, 0.125000000000, 0.125000000000, 0.125000000000, 0.125000000000, 0.125000000000, -0.125000000000, -0.125000000000, -0.125000000000, -0.125000000000, -0.125000000000, 0.125000000000, 0.125000000000, -0.125000000000, -0.125000000000, -0.125000000000, 0.125000000000, 0.125000000000, 0.125000000000, 0.125000000000, 0.125000000000, -0.125000000000, -0.125000000000, -0.125000000000, 0.125000000000, -0.125000000000, 0.125000000000, 0.125000000000, 0.125000000000, 0.125000000000, 0.125000000000, 0.125000000000, 0.125000000000, 0.125000000000, -0.125000000000, 0.125000000000, 0.125000000000, -0.125000000000, -0.125000000000, -0.125000000000, -0.125000000000, 0.125000000000, 0.125000000000, -0.125000000000, -0.125000000000, 0.125000000000, -0.125000000000, 0.125000000000, 0.125000000000, -0.125000000000, 0.125000000000, -0.125000000000, -0.125000000000, 0.125000000000, 0.125000000000, 0.125000000000, -0.125000000000, -0.125000000000, -0.125000000000, 0.125000000000, -0.125000000000, 0.125000000000, 0.125000000000, -0.125000000000, -0.125000000000, -0.125000000000, -0.125000000000, 0.125000000000, 0.125000000000, 0.125000000000, 0.125000000000, 0.125000000000, -0.125000000000, -0.125000000000, 0.125000000000, -0.125000000000, -0.125000000000, -0.125000000000, -0.125000000000, 0.125000000000, -0.125000000000, -0.125000000000, 0.125000000000, 0.125000000000, -0.125000000000, 0.125000000000, 0.125000000000, -0.125000000000, -0.125000000000, 0.125000000000, -0.125000000000, 0.125000000000, 0.125000000000, -0.125000000000, 0.125000000000, -0.125000000000, -0.125000000000, -0.125000000000, 0.125000000000, 0.125000000000, 0.125000000000, -0.125000000000, -0.125000000000, -0.125000000000, -0.125000000000, 0.125000000000, 0.125000000000, 0.125000000000, -0.125000000000, -0.125000000000, -0.125000000000, -0.125000000000, 0.125000000000, -0.125000000000, 0.125000000000, 0.125000000000, 0.125000000000, -0.125000000000, -0.125000000000, -0.125000000000, 0.125000000000, -0.125000000000, 0.125000000000, 0.125000000000, 0.125000000000, 0.125000000000, -0.125000000000, 0.125000000000, -0.125000000000, 0.125000000000, -0.125000000000, 0.125000000000, 0.125000000000, -0.125000000000, -0.125000000000, 0.125000000000, 0.125000000000, 0.125000000000, 0.125000000000, -0.125000000000, 0.125000000000, 0.125000000000, -0.125000000000, -0.125000000000, 0.125000000000, -0.125000000000, 0.125000000000, 0.125000000000, -0.125000000000, -0.125000000000, -0.125000000000, -0.125000000000, -0.125000000000, 0.125000000000, -0.125000000000, -0.125000000000, 0.125000000000, 0.125000000000, 0.125000000000, -0.125000000000, -0.125000000000, -0.125000000000, -0.125000000000, 0.125000000000, 0.125000000000, -0.125000000000, 0.125000000000, -0.125000000000, -0.125000000000, -0.125000000000, -0.125000000000, 0.125000000000, 0.125000000000, 0.125000000000, -0.125000000000, 0.125000000000, -0.125000000000, 0.125000000000, 0.125000000000, -0.125000000000, -0.125000000000, -0.125000000000, 0.125000000000, -0.125000000000, -0.125000000000, -0.125000000000, 0.125000000000, 0.125000000000, -0.125000000000, -0.125000000000, -0.125000000000, 0.125000000000, 0.125000000000, -0.125000000000, 0.125000000000, 0.125000000000, -0.125000000000, 0.125000000000, -0.125000000000, 0.125000000000, 0.125000000000, 0.125000000000, -0.125000000000, -0.125000000000, -0.125000000000, 0.125000000000, -0.125000000000, -0.125000000000, -0.125000000000, 0.125000000000, 0.125000000000, -0.125000000000, -0.125000000000, -0.125000000000, -0.125000000000, 0.125000000000, -0.125000000000, -0.125000000000, 0.125000000000, 0.125000000000, -0.125000000000, 0.125000000000, -0.125000000000, 0.125000000000, -0.125000000000, 0.125000000000, -0.125000000000, 0.125000000000, 0.125000000000, 0.125000000000, 0.125000000000, -0.125000000000, 0.125000000000, -0.125000000000, 0.125000000000, 0.125000000000, -0.125000000000, -0.125000000000, -0.125000000000, -0.125000000000, -0.125000000000, 0.125000000000, -0.125000000000, 0.125000000000, -0.125000000000, 0.125000000000, -0.125000000000, 0.125000000000, 0.125000000000, 0.125000000000, 0.125000000000, 0.125000000000, -0.125000000000, 0.125000000000, 0.125000000000, -0.125000000000, -0.125000000000, 0.125000000000, -0.125000000000, -0.125000000000, -0.125000000000, -0.125000000000, 0.125000000000, -0.125000000000, -0.125000000000, -0.125000000000, -0.125000000000, 0.125000000000, 0.125000000000, -0.125000000000, 0.125000000000, -0.125000000000, -0.125000000000, -0.125000000000, -0.125000000000, -0.125000000000, -0.125000000000, -0.125000000000, -0.125000000000, -0.125000000000, -0.125000000000, -0.125000000000, 0.125000000000, -0.125000000000, 0.125000000000, 0.125000000000, 0.125000000000, 0.125000000000, -0.125000000000, 0.125000000000, -0.125000000000, 0.125000000000, -0.125000000000, -0.125000000000, 0.125000000000, 0.125000000000, 0.125000000000, 0.125000000000, -0.125000000000, -0.125000000000, 0.125000000000, -0.125000000000, -0.125000000000, 0.125000000000, -0.125000000000, -0.125000000000, -0.125000000000, -0.125000000000, -0.125000000000, 0.125000000000, -0.125000000000, -0.125000000000, -0.125000000000, -0.125000000000, 0.125000000000, 0.125000000000, -0.125000000000, -0.125000000000, 0.125000000000, 0.125000000000, 0.125000000000, 0.125000000000, -0.125000000000, 0.125000000000, 0.125000000000, -0.125000000000, -0.125000000000, 0.125000000000, 0.125000000000, 0.125000000000, -0.125000000000, -0.125000000000, -0.125000000000, 0.125000000000, -0.125000000000, -0.125000000000, -0.125000000000, 0.125000000000, 0.125000000000, 0.125000000000, -0.125000000000, 0.125000000000, -0.125000000000, 0.125000000000, 0.125000000000, -0.125000000000, -0.125000000000, 0.125000000000, 0.125000000000, -0.125000000000, 0.125000000000, 0.125000000000, 0.125000000000, 0.125000000000, -0.125000000000, 0.125000000000, 0.125000000000, -0.125000000000, -0.125000000000, -0.125000000000, -0.125000000000, 0.125000000000, -0.125000000000, -0.125000000000, -0.125000000000, 0.125000000000, -0.125000000000, -0.125000000000, 0.125000000000, -0.125000000000, 0.125000000000, 0.125000000000, 0.125000000000, -0.125000000000, -0.125000000000, -0.125000000000, -0.125000000000, -0.125000000000, -0.125000000000, -0.125000000000, 0.125000000000, -0.125000000000, -0.125000000000, 0.125000000000, -0.125000000000, 0.125000000000, -0.125000000000, 0.125000000000, -0.125000000000, -0.125000000000, 0.125000000000, 0.125000000000, 0.125000000000, -0.125000000000, 0.125000000000, -0.125000000000, -0.125000000000, -0.125000000000, -0.125000000000, 0.125000000000, -0.125000000000, -0.125000000000, -0.125000000000, -0.125000000000, -0.125000000000, 0.125000000000, -0.125000000000, 0.125000000000, -0.125000000000, -0.125000000000, 0.125000000000, 0.125000000000, -0.125000000000, -0.125000000000, -0.125000000000, -0.125000000000, 0.125000000000, -0.125000000000, 0.125000000000, -0.125000000000, -0.125000000000, -0.125000000000, -0.125000000000, 0.125000000000, 0.125000000000, -0.125000000000, -0.125000000000, -0.125000000000, 0.125000000000, 0.125000000000, -0.125000000000, -0.125000000000, -0.125000000000, -0.125000000000, -0.125000000000, -0.125000000000, -0.125000000000, 0.125000000000, 0.125000000000, -0.125000000000, -0.125000000000, -0.125000000000, 0.125000000000, -0.125000000000, -0.125000000000, -0.125000000000, 0.125000000000, 0.125000000000, -0.125000000000, -0.125000000000, 0.125000000000, 0.125000000000, -0.125000000000, 0.125000000000, -0.125000000000, 0.125000000000, -0.125000000000, 0.125000000000, -0.125000000000, -0.125000000000, 0.125000000000, -0.125000000000, 0.125000000000, -0.125000000000, -0.125000000000, 0.125000000000, -0.125000000000, -0.125000000000, 0.125000000000, -0.125000000000, -0.125000000000, -0.125000000000, 0.125000000000, 0.125000000000, -0.125000000000, -0.125000000000, -0.125000000000, -0.125000000000, 0.125000000000, 0.125000000000, 0.125000000000, 0.125000000000, -0.125000000000, -0.125000000000, -0.125000000000, -0.125000000000, 0.125000000000, 0.125000000000, -0.125000000000, -0.125000000000, -0.125000000000, 0.125000000000, 0.125000000000, 0.125000000000, -0.125000000000, 0.125000000000, 0.125000000000, 0.125000000000, -0.125000000000, -0.125000000000, -0.125000000000, -0.125000000000, 0.125000000000, 0.125000000000, -0.125000000000, 0.125000000000, -0.125000000000, -0.125000000000, 0.125000000000, -0.125000000000, 0.125000000000, 0.125000000000, -0.125000000000, -0.125000000000, -0.125000000000, -0.125000000000, 0.125000000000, -0.125000000000, -0.125000000000, 0.125000000000, 0.125000000000, 0.125000000000, 0.125000000000, 0.125000000000, -0.125000000000, -0.125000000000, -0.125000000000, 0.125000000000, 0.125000000000, -0.125000000000, -0.125000000000, -0.125000000000, -0.125000000000, -0.125000000000, 0.125000000000, -0.125000000000, -0.125000000000, -0.125000000000, 0.125000000000, -0.125000000000, 0.125000000000, -0.125000000000, -0.125000000000, -0.125000000000, 0.125000000000, -0.125000000000, 0.125000000000, -0.125000000000, 0.125000000000, -0.125000000000, -0.125000000000, -0.125000000000, 0.125000000000, -0.125000000000, 0.125000000000};
