//Numpy array shape (120, 34)
//Min -0.125000000000
//Max 0.125000000000
//Number of zeros 0

weight_default_t w6_1[4080] = {0.125000000000, 0.125000000000, -0.125000000000, -0.125000000000, -0.125000000000, -0.125000000000, -0.125000000000, -0.125000000000, -0.125000000000, -0.125000000000, -0.125000000000, -0.125000000000, 0.125000000000, -0.125000000000, -0.125000000000, -0.125000000000, 0.125000000000, 0.125000000000, 0.125000000000, 0.125000000000, -0.125000000000, 0.125000000000, 0.125000000000, 0.125000000000, 0.125000000000, 0.125000000000, -0.125000000000, 0.125000000000, 0.125000000000, -0.125000000000, -0.125000000000, -0.125000000000, -0.125000000000, 0.125000000000, 0.125000000000, -0.125000000000, -0.125000000000, -0.125000000000, 0.125000000000, 0.125000000000, -0.125000000000, -0.125000000000, -0.125000000000, -0.125000000000, -0.125000000000, 0.125000000000, -0.125000000000, 0.125000000000, -0.125000000000, -0.125000000000, -0.125000000000, -0.125000000000, -0.125000000000, -0.125000000000, 0.125000000000, 0.125000000000, 0.125000000000, 0.125000000000, 0.125000000000, 0.125000000000, 0.125000000000, 0.125000000000, -0.125000000000, -0.125000000000, -0.125000000000, 0.125000000000, 0.125000000000, -0.125000000000, 0.125000000000, -0.125000000000, 0.125000000000, -0.125000000000, -0.125000000000, -0.125000000000, 0.125000000000, -0.125000000000, -0.125000000000, -0.125000000000, 0.125000000000, 0.125000000000, 0.125000000000, 0.125000000000, 0.125000000000, 0.125000000000, 0.125000000000, 0.125000000000, 0.125000000000, 0.125000000000, -0.125000000000, -0.125000000000, -0.125000000000, 0.125000000000, -0.125000000000, 0.125000000000, -0.125000000000, -0.125000000000, -0.125000000000, 0.125000000000, -0.125000000000, 0.125000000000, -0.125000000000, -0.125000000000, -0.125000000000, -0.125000000000, -0.125000000000, 0.125000000000, -0.125000000000, 0.125000000000, 0.125000000000, 0.125000000000, 0.125000000000, 0.125000000000, -0.125000000000, -0.125000000000, 0.125000000000, -0.125000000000, 0.125000000000, -0.125000000000, -0.125000000000, 0.125000000000, 0.125000000000, -0.125000000000, -0.125000000000, -0.125000000000, -0.125000000000, -0.125000000000, -0.125000000000, 0.125000000000, -0.125000000000, -0.125000000000, -0.125000000000, 0.125000000000, 0.125000000000, -0.125000000000, 0.125000000000, -0.125000000000, -0.125000000000, 0.125000000000, -0.125000000000, 0.125000000000, -0.125000000000, -0.125000000000, -0.125000000000, -0.125000000000, -0.125000000000, 0.125000000000, 0.125000000000, 0.125000000000, -0.125000000000, 0.125000000000, -0.125000000000, 0.125000000000, 0.125000000000, -0.125000000000, -0.125000000000, -0.125000000000, 0.125000000000, 0.125000000000, 0.125000000000, -0.125000000000, -0.125000000000, -0.125000000000, 0.125000000000, -0.125000000000, 0.125000000000, 0.125000000000, 0.125000000000, -0.125000000000, 0.125000000000, -0.125000000000, 0.125000000000, 0.125000000000, -0.125000000000, -0.125000000000, 0.125000000000, 0.125000000000, -0.125000000000, -0.125000000000, 0.125000000000, 0.125000000000, -0.125000000000, 0.125000000000, -0.125000000000, 0.125000000000, 0.125000000000, 0.125000000000, 0.125000000000, -0.125000000000, -0.125000000000, 0.125000000000, 0.125000000000, 0.125000000000, 0.125000000000, -0.125000000000, 0.125000000000, -0.125000000000, 0.125000000000, -0.125000000000, -0.125000000000, -0.125000000000, -0.125000000000, -0.125000000000, 0.125000000000, 0.125000000000, -0.125000000000, 0.125000000000, -0.125000000000, -0.125000000000, -0.125000000000, -0.125000000000, 0.125000000000, -0.125000000000, -0.125000000000, -0.125000000000, -0.125000000000, 0.125000000000, 0.125000000000, -0.125000000000, -0.125000000000, 0.125000000000, -0.125000000000, 0.125000000000, -0.125000000000, 0.125000000000, 0.125000000000, -0.125000000000, 0.125000000000, -0.125000000000, -0.125000000000, -0.125000000000, 0.125000000000, -0.125000000000, -0.125000000000, 0.125000000000, -0.125000000000, 0.125000000000, 0.125000000000, -0.125000000000, -0.125000000000, 0.125000000000, -0.125000000000, -0.125000000000, -0.125000000000, -0.125000000000, -0.125000000000, -0.125000000000, -0.125000000000, -0.125000000000, -0.125000000000, 0.125000000000, 0.125000000000, -0.125000000000, -0.125000000000, 0.125000000000, 0.125000000000, 0.125000000000, 0.125000000000, 0.125000000000, 0.125000000000, 0.125000000000, 0.125000000000, -0.125000000000, -0.125000000000, -0.125000000000, -0.125000000000, 0.125000000000, -0.125000000000, 0.125000000000, -0.125000000000, -0.125000000000, -0.125000000000, 0.125000000000, -0.125000000000, -0.125000000000, 0.125000000000, -0.125000000000, -0.125000000000, -0.125000000000, 0.125000000000, 0.125000000000, 0.125000000000, -0.125000000000, -0.125000000000, -0.125000000000, 0.125000000000, -0.125000000000, 0.125000000000, 0.125000000000, 0.125000000000, 0.125000000000, -0.125000000000, -0.125000000000, 0.125000000000, -0.125000000000, -0.125000000000, -0.125000000000, -0.125000000000, -0.125000000000, 0.125000000000, -0.125000000000, 0.125000000000, 0.125000000000, -0.125000000000, -0.125000000000, 0.125000000000, -0.125000000000, 0.125000000000, -0.125000000000, 0.125000000000, -0.125000000000, 0.125000000000, 0.125000000000, 0.125000000000, -0.125000000000, -0.125000000000, -0.125000000000, 0.125000000000, 0.125000000000, -0.125000000000, 0.125000000000, 0.125000000000, -0.125000000000, 0.125000000000, -0.125000000000, 0.125000000000, -0.125000000000, -0.125000000000, -0.125000000000, 0.125000000000, 0.125000000000, 0.125000000000, 0.125000000000, -0.125000000000, 0.125000000000, -0.125000000000, -0.125000000000, -0.125000000000, 0.125000000000, -0.125000000000, 0.125000000000, 0.125000000000, 0.125000000000, 0.125000000000, -0.125000000000, 0.125000000000, 0.125000000000, 0.125000000000, -0.125000000000, -0.125000000000, -0.125000000000, 0.125000000000, -0.125000000000, -0.125000000000, -0.125000000000, 0.125000000000, 0.125000000000, -0.125000000000, -0.125000000000, -0.125000000000, 0.125000000000, -0.125000000000, 0.125000000000, 0.125000000000, -0.125000000000, 0.125000000000, -0.125000000000, 0.125000000000, 0.125000000000, 0.125000000000, -0.125000000000, 0.125000000000, 0.125000000000, -0.125000000000, 0.125000000000, 0.125000000000, 0.125000000000, 0.125000000000, -0.125000000000, 0.125000000000, 0.125000000000, -0.125000000000, -0.125000000000, -0.125000000000, -0.125000000000, 0.125000000000, -0.125000000000, -0.125000000000, -0.125000000000, 0.125000000000, -0.125000000000, 0.125000000000, 0.125000000000, -0.125000000000, 0.125000000000, 0.125000000000, 0.125000000000, 0.125000000000, 0.125000000000, 0.125000000000, 0.125000000000, -0.125000000000, 0.125000000000, -0.125000000000, -0.125000000000, -0.125000000000, 0.125000000000, -0.125000000000, 0.125000000000, -0.125000000000, 0.125000000000, -0.125000000000, 0.125000000000, -0.125000000000, -0.125000000000, -0.125000000000, 0.125000000000, -0.125000000000, -0.125000000000, 0.125000000000, -0.125000000000, 0.125000000000, -0.125000000000, 0.125000000000, 0.125000000000, -0.125000000000, 0.125000000000, 0.125000000000, -0.125000000000, -0.125000000000, -0.125000000000, -0.125000000000, -0.125000000000, -0.125000000000, -0.125000000000, 0.125000000000, -0.125000000000, -0.125000000000, 0.125000000000, -0.125000000000, -0.125000000000, 0.125000000000, 0.125000000000, -0.125000000000, -0.125000000000, 0.125000000000, 0.125000000000, -0.125000000000, -0.125000000000, 0.125000000000, 0.125000000000, 0.125000000000, 0.125000000000, 0.125000000000, 0.125000000000, -0.125000000000, -0.125000000000, -0.125000000000, 0.125000000000, -0.125000000000, 0.125000000000, 0.125000000000, 0.125000000000, -0.125000000000, 0.125000000000, -0.125000000000, -0.125000000000, -0.125000000000, 0.125000000000, 0.125000000000, -0.125000000000, -0.125000000000, 0.125000000000, -0.125000000000, -0.125000000000, 0.125000000000, -0.125000000000, -0.125000000000, 0.125000000000, -0.125000000000, 0.125000000000, 0.125000000000, 0.125000000000, -0.125000000000, -0.125000000000, 0.125000000000, -0.125000000000, -0.125000000000, 0.125000000000, -0.125000000000, 0.125000000000, -0.125000000000, -0.125000000000, -0.125000000000, -0.125000000000, -0.125000000000, -0.125000000000, 0.125000000000, -0.125000000000, 0.125000000000, 0.125000000000, -0.125000000000, -0.125000000000, 0.125000000000, 0.125000000000, 0.125000000000, -0.125000000000, 0.125000000000, 0.125000000000, 0.125000000000, -0.125000000000, 0.125000000000, -0.125000000000, 0.125000000000, -0.125000000000, 0.125000000000, -0.125000000000, -0.125000000000, -0.125000000000, 0.125000000000, 0.125000000000, -0.125000000000, 0.125000000000, -0.125000000000, 0.125000000000, 0.125000000000, -0.125000000000, 0.125000000000, -0.125000000000, -0.125000000000, -0.125000000000, 0.125000000000, 0.125000000000, 0.125000000000, 0.125000000000, 0.125000000000, 0.125000000000, -0.125000000000, 0.125000000000, -0.125000000000, -0.125000000000, 0.125000000000, -0.125000000000, 0.125000000000, -0.125000000000, 0.125000000000, 0.125000000000, 0.125000000000, -0.125000000000, -0.125000000000, 0.125000000000, -0.125000000000, -0.125000000000, -0.125000000000, 0.125000000000, 0.125000000000, -0.125000000000, 0.125000000000, -0.125000000000, 0.125000000000, -0.125000000000, 0.125000000000, 0.125000000000, 0.125000000000, 0.125000000000, -0.125000000000, 0.125000000000, 0.125000000000, 0.125000000000, 0.125000000000, 0.125000000000, -0.125000000000, -0.125000000000, 0.125000000000, -0.125000000000, -0.125000000000, 0.125000000000, -0.125000000000, 0.125000000000, -0.125000000000, 0.125000000000, 0.125000000000, 0.125000000000, -0.125000000000, -0.125000000000, 0.125000000000, -0.125000000000, -0.125000000000, -0.125000000000, -0.125000000000, -0.125000000000, -0.125000000000, -0.125000000000, -0.125000000000, 0.125000000000, -0.125000000000, 0.125000000000, 0.125000000000, -0.125000000000, 0.125000000000, -0.125000000000, 0.125000000000, -0.125000000000, -0.125000000000, 0.125000000000, 0.125000000000, 0.125000000000, 0.125000000000, 0.125000000000, 0.125000000000, -0.125000000000, 0.125000000000, -0.125000000000, -0.125000000000, -0.125000000000, 0.125000000000, -0.125000000000, 0.125000000000, -0.125000000000, -0.125000000000, 0.125000000000, 0.125000000000, 0.125000000000, -0.125000000000, -0.125000000000, -0.125000000000, -0.125000000000, -0.125000000000, 0.125000000000, 0.125000000000, -0.125000000000, 0.125000000000, -0.125000000000, -0.125000000000, -0.125000000000, -0.125000000000, 0.125000000000, -0.125000000000, -0.125000000000, 0.125000000000, 0.125000000000, -0.125000000000, 0.125000000000, -0.125000000000, -0.125000000000, 0.125000000000, -0.125000000000, -0.125000000000, 0.125000000000, 0.125000000000, 0.125000000000, 0.125000000000, 0.125000000000, -0.125000000000, 0.125000000000, 0.125000000000, 0.125000000000, -0.125000000000, -0.125000000000, 0.125000000000, -0.125000000000, -0.125000000000, -0.125000000000, -0.125000000000, -0.125000000000, 0.125000000000, 0.125000000000, 0.125000000000, 0.125000000000, -0.125000000000, 0.125000000000, -0.125000000000, 0.125000000000, -0.125000000000, -0.125000000000, 0.125000000000, 0.125000000000, 0.125000000000, -0.125000000000, 0.125000000000, 0.125000000000, -0.125000000000, -0.125000000000, 0.125000000000, -0.125000000000, -0.125000000000, 0.125000000000, -0.125000000000, -0.125000000000, -0.125000000000, -0.125000000000, 0.125000000000, -0.125000000000, -0.125000000000, 0.125000000000, 0.125000000000, -0.125000000000, -0.125000000000, 0.125000000000, -0.125000000000, 0.125000000000, 0.125000000000, -0.125000000000, 0.125000000000, 0.125000000000, 0.125000000000, -0.125000000000, 0.125000000000, 0.125000000000, -0.125000000000, -0.125000000000, 0.125000000000, 0.125000000000, -0.125000000000, 0.125000000000, -0.125000000000, 0.125000000000, -0.125000000000, 0.125000000000, 0.125000000000, 0.125000000000, 0.125000000000, 0.125000000000, 0.125000000000, 0.125000000000, 0.125000000000, 0.125000000000, -0.125000000000, -0.125000000000, 0.125000000000, -0.125000000000, 0.125000000000, -0.125000000000, -0.125000000000, -0.125000000000, -0.125000000000, 0.125000000000, -0.125000000000, 0.125000000000, -0.125000000000, 0.125000000000, -0.125000000000, -0.125000000000, -0.125000000000, -0.125000000000, 0.125000000000, -0.125000000000, 0.125000000000, 0.125000000000, 0.125000000000, 0.125000000000, 0.125000000000, 0.125000000000, -0.125000000000, 0.125000000000, 0.125000000000, -0.125000000000, -0.125000000000, 0.125000000000, 0.125000000000, 0.125000000000, -0.125000000000, 0.125000000000, -0.125000000000, -0.125000000000, -0.125000000000, -0.125000000000, -0.125000000000, -0.125000000000, 0.125000000000, -0.125000000000, 0.125000000000, -0.125000000000, -0.125000000000, 0.125000000000, 0.125000000000, 0.125000000000, 0.125000000000, 0.125000000000, -0.125000000000, 0.125000000000, -0.125000000000, -0.125000000000, 0.125000000000, -0.125000000000, -0.125000000000, 0.125000000000, -0.125000000000, -0.125000000000, -0.125000000000, 0.125000000000, -0.125000000000, -0.125000000000, 0.125000000000, 0.125000000000, 0.125000000000, 0.125000000000, -0.125000000000, -0.125000000000, -0.125000000000, 0.125000000000, 0.125000000000, -0.125000000000, -0.125000000000, -0.125000000000, 0.125000000000, 0.125000000000, 0.125000000000, 0.125000000000, 0.125000000000, 0.125000000000, -0.125000000000, -0.125000000000, -0.125000000000, 0.125000000000, -0.125000000000, -0.125000000000, 0.125000000000, -0.125000000000, -0.125000000000, 0.125000000000, 0.125000000000, 0.125000000000, 0.125000000000, -0.125000000000, -0.125000000000, 0.125000000000, -0.125000000000, 0.125000000000, -0.125000000000, 0.125000000000, -0.125000000000, -0.125000000000, -0.125000000000, -0.125000000000, 0.125000000000, -0.125000000000, 0.125000000000, -0.125000000000, 0.125000000000, 0.125000000000, 0.125000000000, 0.125000000000, 0.125000000000, -0.125000000000, -0.125000000000, -0.125000000000, -0.125000000000, 0.125000000000, 0.125000000000, -0.125000000000, -0.125000000000, 0.125000000000, -0.125000000000, 0.125000000000, -0.125000000000, 0.125000000000, 0.125000000000, -0.125000000000, -0.125000000000, 0.125000000000, -0.125000000000, -0.125000000000, -0.125000000000, -0.125000000000, 0.125000000000, -0.125000000000, 0.125000000000, 0.125000000000, -0.125000000000, -0.125000000000, -0.125000000000, 0.125000000000, 0.125000000000, -0.125000000000, -0.125000000000, -0.125000000000, -0.125000000000, 0.125000000000, 0.125000000000, -0.125000000000, -0.125000000000, 0.125000000000, -0.125000000000, 0.125000000000, -0.125000000000, -0.125000000000, 0.125000000000, 0.125000000000, -0.125000000000, 0.125000000000, 0.125000000000, 0.125000000000, -0.125000000000, -0.125000000000, 0.125000000000, 0.125000000000, -0.125000000000, -0.125000000000, 0.125000000000, 0.125000000000, -0.125000000000, 0.125000000000, 0.125000000000, -0.125000000000, -0.125000000000, -0.125000000000, -0.125000000000, -0.125000000000, -0.125000000000, 0.125000000000, 0.125000000000, -0.125000000000, 0.125000000000, 0.125000000000, -0.125000000000, 0.125000000000, 0.125000000000, -0.125000000000, -0.125000000000, 0.125000000000, 0.125000000000, 0.125000000000, -0.125000000000, 0.125000000000, 0.125000000000, -0.125000000000, -0.125000000000, 0.125000000000, -0.125000000000, -0.125000000000, -0.125000000000, -0.125000000000, -0.125000000000, 0.125000000000, -0.125000000000, 0.125000000000, 0.125000000000, -0.125000000000, 0.125000000000, 0.125000000000, 0.125000000000, -0.125000000000, 0.125000000000, 0.125000000000, 0.125000000000, 0.125000000000, 0.125000000000, -0.125000000000, 0.125000000000, -0.125000000000, -0.125000000000, -0.125000000000, -0.125000000000, -0.125000000000, -0.125000000000, 0.125000000000, 0.125000000000, 0.125000000000, 0.125000000000, 0.125000000000, 0.125000000000, 0.125000000000, 0.125000000000, -0.125000000000, -0.125000000000, -0.125000000000, 0.125000000000, 0.125000000000, -0.125000000000, 0.125000000000, -0.125000000000, -0.125000000000, -0.125000000000, -0.125000000000, -0.125000000000, -0.125000000000, -0.125000000000, -0.125000000000, 0.125000000000, 0.125000000000, 0.125000000000, 0.125000000000, 0.125000000000, -0.125000000000, 0.125000000000, -0.125000000000, -0.125000000000, 0.125000000000, -0.125000000000, 0.125000000000, -0.125000000000, -0.125000000000, -0.125000000000, 0.125000000000, 0.125000000000, 0.125000000000, -0.125000000000, -0.125000000000, 0.125000000000, 0.125000000000, -0.125000000000, -0.125000000000, -0.125000000000, 0.125000000000, 0.125000000000, 0.125000000000, 0.125000000000, 0.125000000000, 0.125000000000, -0.125000000000, -0.125000000000, -0.125000000000, 0.125000000000, 0.125000000000, 0.125000000000, 0.125000000000, 0.125000000000, -0.125000000000, 0.125000000000, -0.125000000000, 0.125000000000, 0.125000000000, -0.125000000000, 0.125000000000, 0.125000000000, 0.125000000000, -0.125000000000, -0.125000000000, 0.125000000000, 0.125000000000, -0.125000000000, -0.125000000000, -0.125000000000, 0.125000000000, 0.125000000000, -0.125000000000, 0.125000000000, -0.125000000000, -0.125000000000, -0.125000000000, -0.125000000000, -0.125000000000, 0.125000000000, -0.125000000000, -0.125000000000, -0.125000000000, 0.125000000000, 0.125000000000, -0.125000000000, -0.125000000000, -0.125000000000, 0.125000000000, 0.125000000000, 0.125000000000, -0.125000000000, -0.125000000000, 0.125000000000, 0.125000000000, -0.125000000000, 0.125000000000, -0.125000000000, 0.125000000000, -0.125000000000, 0.125000000000, -0.125000000000, -0.125000000000, -0.125000000000, -0.125000000000, -0.125000000000, 0.125000000000, -0.125000000000, 0.125000000000, -0.125000000000, -0.125000000000, -0.125000000000, 0.125000000000, -0.125000000000, 0.125000000000, -0.125000000000, 0.125000000000, 0.125000000000, -0.125000000000, 0.125000000000, 0.125000000000, -0.125000000000, -0.125000000000, 0.125000000000, 0.125000000000, 0.125000000000, -0.125000000000, -0.125000000000, 0.125000000000, -0.125000000000, -0.125000000000, -0.125000000000, 0.125000000000, -0.125000000000, 0.125000000000, -0.125000000000, -0.125000000000, 0.125000000000, -0.125000000000, 0.125000000000, -0.125000000000, 0.125000000000, -0.125000000000, 0.125000000000, 0.125000000000, -0.125000000000, 0.125000000000, -0.125000000000, -0.125000000000, -0.125000000000, -0.125000000000, -0.125000000000, 0.125000000000, 0.125000000000, -0.125000000000, -0.125000000000, -0.125000000000, -0.125000000000, 0.125000000000, 0.125000000000, 0.125000000000, -0.125000000000, -0.125000000000, 0.125000000000, 0.125000000000, -0.125000000000, -0.125000000000, 0.125000000000, -0.125000000000, 0.125000000000, 0.125000000000, -0.125000000000, -0.125000000000, -0.125000000000, 0.125000000000, 0.125000000000, -0.125000000000, -0.125000000000, 0.125000000000, 0.125000000000, 0.125000000000, 0.125000000000, -0.125000000000, 0.125000000000, -0.125000000000, 0.125000000000, 0.125000000000, -0.125000000000, -0.125000000000, -0.125000000000, -0.125000000000, -0.125000000000, 0.125000000000, -0.125000000000, -0.125000000000, -0.125000000000, -0.125000000000, 0.125000000000, -0.125000000000, -0.125000000000, 0.125000000000, 0.125000000000, 0.125000000000, -0.125000000000, -0.125000000000, 0.125000000000, -0.125000000000, 0.125000000000, 0.125000000000, 0.125000000000, 0.125000000000, 0.125000000000, 0.125000000000, -0.125000000000, 0.125000000000, -0.125000000000, -0.125000000000, -0.125000000000, -0.125000000000, -0.125000000000, -0.125000000000, -0.125000000000, 0.125000000000, 0.125000000000, -0.125000000000, 0.125000000000, 0.125000000000, -0.125000000000, 0.125000000000, -0.125000000000, 0.125000000000, 0.125000000000, -0.125000000000, -0.125000000000, 0.125000000000, 0.125000000000, -0.125000000000, 0.125000000000, -0.125000000000, -0.125000000000, 0.125000000000, -0.125000000000, 0.125000000000, -0.125000000000, -0.125000000000, 0.125000000000, 0.125000000000, -0.125000000000, 0.125000000000, 0.125000000000, -0.125000000000, -0.125000000000, 0.125000000000, 0.125000000000, -0.125000000000, -0.125000000000, 0.125000000000, 0.125000000000, 0.125000000000, 0.125000000000, 0.125000000000, 0.125000000000, 0.125000000000, -0.125000000000, -0.125000000000, 0.125000000000, 0.125000000000, -0.125000000000, 0.125000000000, 0.125000000000, 0.125000000000, -0.125000000000, -0.125000000000, 0.125000000000, -0.125000000000, 0.125000000000, 0.125000000000, 0.125000000000, -0.125000000000, -0.125000000000, 0.125000000000, -0.125000000000, 0.125000000000, -0.125000000000, -0.125000000000, 0.125000000000, -0.125000000000, -0.125000000000, -0.125000000000, -0.125000000000, -0.125000000000, 0.125000000000, 0.125000000000, 0.125000000000, 0.125000000000, -0.125000000000, 0.125000000000, -0.125000000000, 0.125000000000, -0.125000000000, -0.125000000000, 0.125000000000, 0.125000000000, -0.125000000000, -0.125000000000, 0.125000000000, -0.125000000000, -0.125000000000, -0.125000000000, -0.125000000000, -0.125000000000, -0.125000000000, 0.125000000000, 0.125000000000, 0.125000000000, -0.125000000000, 0.125000000000, 0.125000000000, -0.125000000000, 0.125000000000, 0.125000000000, -0.125000000000, 0.125000000000, 0.125000000000, -0.125000000000, -0.125000000000, 0.125000000000, -0.125000000000, 0.125000000000, 0.125000000000, -0.125000000000, 0.125000000000, -0.125000000000, 0.125000000000, -0.125000000000, -0.125000000000, 0.125000000000, -0.125000000000, -0.125000000000, -0.125000000000, -0.125000000000, 0.125000000000, 0.125000000000, 0.125000000000, 0.125000000000, -0.125000000000, 0.125000000000, 0.125000000000, 0.125000000000, 0.125000000000, -0.125000000000, -0.125000000000, 0.125000000000, 0.125000000000, 0.125000000000, -0.125000000000, 0.125000000000, 0.125000000000, -0.125000000000, 0.125000000000, -0.125000000000, 0.125000000000, -0.125000000000, 0.125000000000, 0.125000000000, -0.125000000000, -0.125000000000, -0.125000000000, -0.125000000000, -0.125000000000, 0.125000000000, -0.125000000000, -0.125000000000, 0.125000000000, -0.125000000000, 0.125000000000, -0.125000000000, 0.125000000000, 0.125000000000, -0.125000000000, 0.125000000000, 0.125000000000, 0.125000000000, -0.125000000000, -0.125000000000, 0.125000000000, 0.125000000000, 0.125000000000, -0.125000000000, 0.125000000000, 0.125000000000, 0.125000000000, 0.125000000000, -0.125000000000, 0.125000000000, 0.125000000000, -0.125000000000, 0.125000000000, 0.125000000000, 0.125000000000, -0.125000000000, -0.125000000000, 0.125000000000, 0.125000000000, -0.125000000000, -0.125000000000, -0.125000000000, 0.125000000000, -0.125000000000, -0.125000000000, 0.125000000000, -0.125000000000, -0.125000000000, 0.125000000000, 0.125000000000, -0.125000000000, -0.125000000000, 0.125000000000, 0.125000000000, -0.125000000000, 0.125000000000, 0.125000000000, 0.125000000000, 0.125000000000, 0.125000000000, 0.125000000000, -0.125000000000, -0.125000000000, 0.125000000000, -0.125000000000, 0.125000000000, -0.125000000000, -0.125000000000, 0.125000000000, 0.125000000000, 0.125000000000, -0.125000000000, -0.125000000000, -0.125000000000, 0.125000000000, 0.125000000000, -0.125000000000, 0.125000000000, -0.125000000000, 0.125000000000, -0.125000000000, 0.125000000000, -0.125000000000, -0.125000000000, -0.125000000000, -0.125000000000, 0.125000000000, -0.125000000000, 0.125000000000, 0.125000000000, -0.125000000000, -0.125000000000, 0.125000000000, 0.125000000000, -0.125000000000, -0.125000000000, -0.125000000000, 0.125000000000, 0.125000000000, -0.125000000000, -0.125000000000, -0.125000000000, 0.125000000000, 0.125000000000, -0.125000000000, -0.125000000000, 0.125000000000, 0.125000000000, -0.125000000000, 0.125000000000, -0.125000000000, -0.125000000000, -0.125000000000, -0.125000000000, -0.125000000000, 0.125000000000, -0.125000000000, 0.125000000000, 0.125000000000, -0.125000000000, 0.125000000000, 0.125000000000, -0.125000000000, -0.125000000000, -0.125000000000, -0.125000000000, -0.125000000000, -0.125000000000, 0.125000000000, -0.125000000000, 0.125000000000, -0.125000000000, -0.125000000000, -0.125000000000, 0.125000000000, 0.125000000000, 0.125000000000, -0.125000000000, -0.125000000000, -0.125000000000, -0.125000000000, -0.125000000000, 0.125000000000, -0.125000000000, 0.125000000000, 0.125000000000, -0.125000000000, 0.125000000000, -0.125000000000, -0.125000000000, 0.125000000000, 0.125000000000, -0.125000000000, 0.125000000000, 0.125000000000, 0.125000000000, 0.125000000000, 0.125000000000, 0.125000000000, -0.125000000000, 0.125000000000, 0.125000000000, 0.125000000000, 0.125000000000, 0.125000000000, 0.125000000000, -0.125000000000, 0.125000000000, 0.125000000000, -0.125000000000, 0.125000000000, -0.125000000000, 0.125000000000, 0.125000000000, 0.125000000000, -0.125000000000, -0.125000000000, -0.125000000000, 0.125000000000, 0.125000000000, -0.125000000000, -0.125000000000, 0.125000000000, -0.125000000000, 0.125000000000, -0.125000000000, -0.125000000000, -0.125000000000, -0.125000000000, -0.125000000000, -0.125000000000, 0.125000000000, 0.125000000000, 0.125000000000, -0.125000000000, 0.125000000000, -0.125000000000, -0.125000000000, -0.125000000000, 0.125000000000, -0.125000000000, 0.125000000000, -0.125000000000, -0.125000000000, -0.125000000000, 0.125000000000, -0.125000000000, -0.125000000000, 0.125000000000, -0.125000000000, -0.125000000000, -0.125000000000, 0.125000000000, 0.125000000000, -0.125000000000, 0.125000000000, -0.125000000000, -0.125000000000, -0.125000000000, 0.125000000000, 0.125000000000, -0.125000000000, -0.125000000000, 0.125000000000, 0.125000000000, -0.125000000000, 0.125000000000, -0.125000000000, 0.125000000000, -0.125000000000, 0.125000000000, 0.125000000000, 0.125000000000, -0.125000000000, -0.125000000000, 0.125000000000, -0.125000000000, 0.125000000000, -0.125000000000, 0.125000000000, -0.125000000000, 0.125000000000, -0.125000000000, -0.125000000000, -0.125000000000, -0.125000000000, 0.125000000000, 0.125000000000, 0.125000000000, -0.125000000000, -0.125000000000, -0.125000000000, -0.125000000000, 0.125000000000, -0.125000000000, 0.125000000000, -0.125000000000, -0.125000000000, 0.125000000000, -0.125000000000, -0.125000000000, -0.125000000000, 0.125000000000, 0.125000000000, 0.125000000000, -0.125000000000, -0.125000000000, 0.125000000000, 0.125000000000, -0.125000000000, 0.125000000000, -0.125000000000, 0.125000000000, 0.125000000000, 0.125000000000, 0.125000000000, -0.125000000000, 0.125000000000, 0.125000000000, -0.125000000000, 0.125000000000, 0.125000000000, 0.125000000000, 0.125000000000, 0.125000000000, 0.125000000000, -0.125000000000, 0.125000000000, -0.125000000000, 0.125000000000, -0.125000000000, -0.125000000000, -0.125000000000, 0.125000000000, 0.125000000000, -0.125000000000, 0.125000000000, 0.125000000000, 0.125000000000, 0.125000000000, 0.125000000000, 0.125000000000, 0.125000000000, -0.125000000000, 0.125000000000, -0.125000000000, 0.125000000000, -0.125000000000, 0.125000000000, 0.125000000000, 0.125000000000, 0.125000000000, -0.125000000000, -0.125000000000, 0.125000000000, 0.125000000000, 0.125000000000, -0.125000000000, 0.125000000000, 0.125000000000, -0.125000000000, 0.125000000000, -0.125000000000, -0.125000000000, -0.125000000000, -0.125000000000, -0.125000000000, 0.125000000000, -0.125000000000, -0.125000000000, 0.125000000000, 0.125000000000, -0.125000000000, -0.125000000000, 0.125000000000, -0.125000000000, -0.125000000000, -0.125000000000, -0.125000000000, 0.125000000000, -0.125000000000, -0.125000000000, -0.125000000000, 0.125000000000, 0.125000000000, -0.125000000000, -0.125000000000, -0.125000000000, 0.125000000000, -0.125000000000, -0.125000000000, -0.125000000000, 0.125000000000, 0.125000000000, 0.125000000000, 0.125000000000, -0.125000000000, 0.125000000000, -0.125000000000, -0.125000000000, 0.125000000000, -0.125000000000, -0.125000000000, -0.125000000000, 0.125000000000, 0.125000000000, -0.125000000000, -0.125000000000, -0.125000000000, 0.125000000000, -0.125000000000, 0.125000000000, -0.125000000000, 0.125000000000, 0.125000000000, -0.125000000000, -0.125000000000, -0.125000000000, -0.125000000000, -0.125000000000, 0.125000000000, 0.125000000000, -0.125000000000, 0.125000000000, -0.125000000000, 0.125000000000, -0.125000000000, -0.125000000000, 0.125000000000, -0.125000000000, 0.125000000000, 0.125000000000, 0.125000000000, 0.125000000000, 0.125000000000, 0.125000000000, 0.125000000000, -0.125000000000, 0.125000000000, -0.125000000000, -0.125000000000, -0.125000000000, -0.125000000000, -0.125000000000, -0.125000000000, 0.125000000000, -0.125000000000, 0.125000000000, -0.125000000000, 0.125000000000, 0.125000000000, 0.125000000000, 0.125000000000, 0.125000000000, 0.125000000000, 0.125000000000, 0.125000000000, -0.125000000000, -0.125000000000, -0.125000000000, 0.125000000000, -0.125000000000, 0.125000000000, 0.125000000000, -0.125000000000, -0.125000000000, -0.125000000000, 0.125000000000, -0.125000000000, -0.125000000000, -0.125000000000, 0.125000000000, -0.125000000000, -0.125000000000, -0.125000000000, -0.125000000000, -0.125000000000, -0.125000000000, -0.125000000000, 0.125000000000, -0.125000000000, -0.125000000000, 0.125000000000, -0.125000000000, -0.125000000000, -0.125000000000, 0.125000000000, 0.125000000000, -0.125000000000, 0.125000000000, -0.125000000000, -0.125000000000, 0.125000000000, -0.125000000000, 0.125000000000, -0.125000000000, -0.125000000000, 0.125000000000, 0.125000000000, 0.125000000000, -0.125000000000, 0.125000000000, -0.125000000000, 0.125000000000, -0.125000000000, 0.125000000000, -0.125000000000, -0.125000000000, 0.125000000000, 0.125000000000, -0.125000000000, 0.125000000000, 0.125000000000, -0.125000000000, -0.125000000000, -0.125000000000, 0.125000000000, 0.125000000000, -0.125000000000, -0.125000000000, 0.125000000000, 0.125000000000, 0.125000000000, 0.125000000000, -0.125000000000, 0.125000000000, 0.125000000000, 0.125000000000, 0.125000000000, -0.125000000000, -0.125000000000, -0.125000000000, 0.125000000000, -0.125000000000, 0.125000000000, -0.125000000000, 0.125000000000, 0.125000000000, -0.125000000000, 0.125000000000, -0.125000000000, -0.125000000000, -0.125000000000, 0.125000000000, -0.125000000000, 0.125000000000, 0.125000000000, -0.125000000000, 0.125000000000, -0.125000000000, 0.125000000000, -0.125000000000, -0.125000000000, -0.125000000000, 0.125000000000, -0.125000000000, 0.125000000000, -0.125000000000, -0.125000000000, 0.125000000000, -0.125000000000, 0.125000000000, -0.125000000000, 0.125000000000, 0.125000000000, -0.125000000000, 0.125000000000, 0.125000000000, 0.125000000000, -0.125000000000, 0.125000000000, -0.125000000000, 0.125000000000, 0.125000000000, 0.125000000000, 0.125000000000, -0.125000000000, -0.125000000000, 0.125000000000, -0.125000000000, -0.125000000000, -0.125000000000, 0.125000000000, -0.125000000000, 0.125000000000, -0.125000000000, -0.125000000000, -0.125000000000, 0.125000000000, 0.125000000000, -0.125000000000, 0.125000000000, -0.125000000000, 0.125000000000, 0.125000000000, 0.125000000000, 0.125000000000, -0.125000000000, -0.125000000000, -0.125000000000, 0.125000000000, -0.125000000000, 0.125000000000, -0.125000000000, 0.125000000000, 0.125000000000, 0.125000000000, 0.125000000000, -0.125000000000, -0.125000000000, -0.125000000000, 0.125000000000, -0.125000000000, 0.125000000000, 0.125000000000, -0.125000000000, 0.125000000000, 0.125000000000, 0.125000000000, 0.125000000000, -0.125000000000, 0.125000000000, -0.125000000000, -0.125000000000, 0.125000000000, 0.125000000000, -0.125000000000, 0.125000000000, -0.125000000000, 0.125000000000, -0.125000000000, -0.125000000000, -0.125000000000, -0.125000000000, 0.125000000000, 0.125000000000, 0.125000000000, -0.125000000000, 0.125000000000, 0.125000000000, 0.125000000000, -0.125000000000, 0.125000000000, 0.125000000000, 0.125000000000, -0.125000000000, 0.125000000000, 0.125000000000, -0.125000000000, -0.125000000000, -0.125000000000, -0.125000000000, 0.125000000000, -0.125000000000, -0.125000000000, -0.125000000000, 0.125000000000, 0.125000000000, -0.125000000000, -0.125000000000, -0.125000000000, -0.125000000000, 0.125000000000, -0.125000000000, 0.125000000000, 0.125000000000, -0.125000000000, 0.125000000000, 0.125000000000, 0.125000000000, 0.125000000000, -0.125000000000, -0.125000000000, 0.125000000000, 0.125000000000, 0.125000000000, -0.125000000000, 0.125000000000, 0.125000000000, -0.125000000000, 0.125000000000, 0.125000000000, -0.125000000000, -0.125000000000, -0.125000000000, -0.125000000000, 0.125000000000, 0.125000000000, 0.125000000000, 0.125000000000, 0.125000000000, 0.125000000000, 0.125000000000, 0.125000000000, 0.125000000000, -0.125000000000, -0.125000000000, -0.125000000000, 0.125000000000, -0.125000000000, 0.125000000000, 0.125000000000, 0.125000000000, -0.125000000000, -0.125000000000, 0.125000000000, -0.125000000000, -0.125000000000, -0.125000000000, 0.125000000000, -0.125000000000, -0.125000000000, 0.125000000000, -0.125000000000, -0.125000000000, -0.125000000000, -0.125000000000, 0.125000000000, -0.125000000000, -0.125000000000, -0.125000000000, -0.125000000000, -0.125000000000, 0.125000000000, -0.125000000000, -0.125000000000, 0.125000000000, -0.125000000000, 0.125000000000, -0.125000000000, -0.125000000000, 0.125000000000, 0.125000000000, 0.125000000000, -0.125000000000, 0.125000000000, -0.125000000000, -0.125000000000, 0.125000000000, -0.125000000000, -0.125000000000, -0.125000000000, -0.125000000000, -0.125000000000, 0.125000000000, 0.125000000000, -0.125000000000, 0.125000000000, -0.125000000000, -0.125000000000, 0.125000000000, 0.125000000000, -0.125000000000, -0.125000000000, 0.125000000000, -0.125000000000, -0.125000000000, -0.125000000000, 0.125000000000, -0.125000000000, -0.125000000000, 0.125000000000, 0.125000000000, 0.125000000000, -0.125000000000, 0.125000000000, -0.125000000000, -0.125000000000, 0.125000000000, 0.125000000000, -0.125000000000, 0.125000000000, 0.125000000000, 0.125000000000, -0.125000000000, 0.125000000000, -0.125000000000, 0.125000000000, 0.125000000000, 0.125000000000, 0.125000000000, -0.125000000000, 0.125000000000, -0.125000000000, -0.125000000000, 0.125000000000, 0.125000000000, 0.125000000000, -0.125000000000, 0.125000000000, 0.125000000000, 0.125000000000, -0.125000000000, 0.125000000000, 0.125000000000, -0.125000000000, -0.125000000000, -0.125000000000, 0.125000000000, -0.125000000000, 0.125000000000, 0.125000000000, -0.125000000000, 0.125000000000, -0.125000000000, 0.125000000000, -0.125000000000, -0.125000000000, -0.125000000000, -0.125000000000, 0.125000000000, -0.125000000000, 0.125000000000, 0.125000000000, -0.125000000000, -0.125000000000, 0.125000000000, -0.125000000000, 0.125000000000, -0.125000000000, -0.125000000000, 0.125000000000, -0.125000000000, 0.125000000000, -0.125000000000, 0.125000000000, 0.125000000000, -0.125000000000, -0.125000000000, -0.125000000000, 0.125000000000, -0.125000000000, -0.125000000000, -0.125000000000, -0.125000000000, 0.125000000000, -0.125000000000, 0.125000000000, -0.125000000000, -0.125000000000, -0.125000000000, -0.125000000000, -0.125000000000, -0.125000000000, -0.125000000000, -0.125000000000, 0.125000000000, 0.125000000000, 0.125000000000, -0.125000000000, 0.125000000000, -0.125000000000, -0.125000000000, -0.125000000000, -0.125000000000, -0.125000000000, 0.125000000000, -0.125000000000, -0.125000000000, -0.125000000000, 0.125000000000, 0.125000000000, -0.125000000000, 0.125000000000, -0.125000000000, 0.125000000000, -0.125000000000, -0.125000000000, -0.125000000000, 0.125000000000, 0.125000000000, -0.125000000000, 0.125000000000, -0.125000000000, 0.125000000000, 0.125000000000, -0.125000000000, 0.125000000000, -0.125000000000, 0.125000000000, -0.125000000000, -0.125000000000, -0.125000000000, -0.125000000000, 0.125000000000, -0.125000000000, -0.125000000000, 0.125000000000, -0.125000000000, -0.125000000000, -0.125000000000, 0.125000000000, 0.125000000000, -0.125000000000, 0.125000000000, 0.125000000000, 0.125000000000, 0.125000000000, -0.125000000000, -0.125000000000, -0.125000000000, -0.125000000000, 0.125000000000, 0.125000000000, -0.125000000000, 0.125000000000, -0.125000000000, -0.125000000000, 0.125000000000, -0.125000000000, -0.125000000000, -0.125000000000, -0.125000000000, -0.125000000000, 0.125000000000, -0.125000000000, -0.125000000000, 0.125000000000, 0.125000000000, -0.125000000000, 0.125000000000, -0.125000000000, 0.125000000000, -0.125000000000, 0.125000000000, -0.125000000000, 0.125000000000, -0.125000000000, 0.125000000000, 0.125000000000, -0.125000000000, 0.125000000000, -0.125000000000, -0.125000000000, -0.125000000000, -0.125000000000, -0.125000000000, 0.125000000000, -0.125000000000, 0.125000000000, 0.125000000000, 0.125000000000, -0.125000000000, 0.125000000000, -0.125000000000, -0.125000000000, 0.125000000000, 0.125000000000, -0.125000000000, 0.125000000000, 0.125000000000, -0.125000000000, 0.125000000000, -0.125000000000, -0.125000000000, 0.125000000000, -0.125000000000, -0.125000000000, -0.125000000000, -0.125000000000, 0.125000000000, -0.125000000000, 0.125000000000, -0.125000000000, -0.125000000000, -0.125000000000, -0.125000000000, 0.125000000000, 0.125000000000, 0.125000000000, 0.125000000000, 0.125000000000, -0.125000000000, -0.125000000000, 0.125000000000, 0.125000000000, 0.125000000000, 0.125000000000, -0.125000000000, -0.125000000000, -0.125000000000, -0.125000000000, 0.125000000000, -0.125000000000, -0.125000000000, 0.125000000000, 0.125000000000, -0.125000000000, 0.125000000000, -0.125000000000, 0.125000000000, -0.125000000000, -0.125000000000, 0.125000000000, 0.125000000000, -0.125000000000, -0.125000000000, 0.125000000000, 0.125000000000, 0.125000000000, -0.125000000000, -0.125000000000, 0.125000000000, 0.125000000000, 0.125000000000, 0.125000000000, -0.125000000000, 0.125000000000, -0.125000000000, 0.125000000000, -0.125000000000, 0.125000000000, 0.125000000000, -0.125000000000, -0.125000000000, -0.125000000000, -0.125000000000, -0.125000000000, -0.125000000000, 0.125000000000, -0.125000000000, -0.125000000000, 0.125000000000, -0.125000000000, 0.125000000000, 0.125000000000, -0.125000000000, 0.125000000000, 0.125000000000, 0.125000000000, -0.125000000000, -0.125000000000, 0.125000000000, -0.125000000000, -0.125000000000, 0.125000000000, -0.125000000000, 0.125000000000, 0.125000000000, 0.125000000000, -0.125000000000, -0.125000000000, -0.125000000000, -0.125000000000, 0.125000000000, -0.125000000000, 0.125000000000, -0.125000000000, 0.125000000000, -0.125000000000, 0.125000000000, 0.125000000000, -0.125000000000, 0.125000000000, -0.125000000000, -0.125000000000, 0.125000000000, 0.125000000000, -0.125000000000, -0.125000000000, -0.125000000000, 0.125000000000, 0.125000000000, 0.125000000000, 0.125000000000, -0.125000000000, 0.125000000000, 0.125000000000, 0.125000000000, 0.125000000000, -0.125000000000, -0.125000000000, 0.125000000000, -0.125000000000, 0.125000000000, -0.125000000000, -0.125000000000, -0.125000000000, -0.125000000000, -0.125000000000, -0.125000000000, -0.125000000000, -0.125000000000, 0.125000000000, -0.125000000000, -0.125000000000, -0.125000000000, -0.125000000000, -0.125000000000, 0.125000000000, 0.125000000000, 0.125000000000, -0.125000000000, 0.125000000000, -0.125000000000, 0.125000000000, -0.125000000000, 0.125000000000, -0.125000000000, 0.125000000000, -0.125000000000, -0.125000000000, 0.125000000000, -0.125000000000, 0.125000000000, -0.125000000000, 0.125000000000, 0.125000000000, 0.125000000000, 0.125000000000, 0.125000000000, 0.125000000000, -0.125000000000, -0.125000000000, -0.125000000000, -0.125000000000, -0.125000000000, -0.125000000000, 0.125000000000, -0.125000000000, 0.125000000000, 0.125000000000, -0.125000000000, -0.125000000000, 0.125000000000, 0.125000000000, 0.125000000000, -0.125000000000, 0.125000000000, -0.125000000000, 0.125000000000, -0.125000000000, 0.125000000000, -0.125000000000, 0.125000000000, 0.125000000000, -0.125000000000, -0.125000000000, -0.125000000000, -0.125000000000, 0.125000000000, -0.125000000000, 0.125000000000, -0.125000000000, -0.125000000000, 0.125000000000, 0.125000000000, 0.125000000000, -0.125000000000, 0.125000000000, 0.125000000000, 0.125000000000, -0.125000000000, 0.125000000000, -0.125000000000, -0.125000000000, 0.125000000000, -0.125000000000, -0.125000000000, -0.125000000000, 0.125000000000, -0.125000000000, 0.125000000000, 0.125000000000, 0.125000000000, 0.125000000000, 0.125000000000, 0.125000000000, -0.125000000000, 0.125000000000, -0.125000000000, -0.125000000000, -0.125000000000, 0.125000000000, 0.125000000000, 0.125000000000, -0.125000000000, -0.125000000000, 0.125000000000, 0.125000000000, 0.125000000000, 0.125000000000, -0.125000000000, 0.125000000000, 0.125000000000, 0.125000000000, -0.125000000000, -0.125000000000, -0.125000000000, -0.125000000000, -0.125000000000, -0.125000000000, -0.125000000000, -0.125000000000, -0.125000000000, 0.125000000000, 0.125000000000, 0.125000000000, -0.125000000000, -0.125000000000, 0.125000000000, -0.125000000000, -0.125000000000, 0.125000000000, 0.125000000000, -0.125000000000, -0.125000000000, -0.125000000000, -0.125000000000, -0.125000000000, -0.125000000000, 0.125000000000, -0.125000000000, -0.125000000000, 0.125000000000, 0.125000000000, 0.125000000000, -0.125000000000, -0.125000000000, 0.125000000000, 0.125000000000, 0.125000000000, 0.125000000000, -0.125000000000, 0.125000000000, 0.125000000000, -0.125000000000, -0.125000000000, -0.125000000000, -0.125000000000, -0.125000000000, 0.125000000000, 0.125000000000, 0.125000000000, -0.125000000000, 0.125000000000, 0.125000000000, -0.125000000000, -0.125000000000, -0.125000000000, 0.125000000000, -0.125000000000, 0.125000000000, 0.125000000000, 0.125000000000, 0.125000000000, -0.125000000000, -0.125000000000, 0.125000000000, -0.125000000000, -0.125000000000, 0.125000000000, -0.125000000000, -0.125000000000, -0.125000000000, -0.125000000000, -0.125000000000, 0.125000000000, 0.125000000000, -0.125000000000, 0.125000000000, -0.125000000000, -0.125000000000, 0.125000000000, -0.125000000000, -0.125000000000, 0.125000000000, 0.125000000000, -0.125000000000, 0.125000000000, 0.125000000000, 0.125000000000, 0.125000000000, -0.125000000000, -0.125000000000, -0.125000000000, -0.125000000000, -0.125000000000, 0.125000000000, -0.125000000000, -0.125000000000, -0.125000000000, -0.125000000000, -0.125000000000, -0.125000000000, -0.125000000000, -0.125000000000, 0.125000000000, -0.125000000000, 0.125000000000, 0.125000000000, -0.125000000000, 0.125000000000, 0.125000000000, -0.125000000000, 0.125000000000, 0.125000000000, -0.125000000000, 0.125000000000, 0.125000000000, -0.125000000000, -0.125000000000, 0.125000000000, -0.125000000000, 0.125000000000, 0.125000000000, 0.125000000000, 0.125000000000, -0.125000000000, 0.125000000000, 0.125000000000, 0.125000000000, 0.125000000000, -0.125000000000, -0.125000000000, -0.125000000000, 0.125000000000, -0.125000000000, 0.125000000000, 0.125000000000, -0.125000000000, 0.125000000000, -0.125000000000, -0.125000000000, -0.125000000000, 0.125000000000, 0.125000000000, -0.125000000000, 0.125000000000, -0.125000000000, -0.125000000000, -0.125000000000, -0.125000000000, -0.125000000000, -0.125000000000, -0.125000000000, -0.125000000000, 0.125000000000, -0.125000000000, 0.125000000000, -0.125000000000, 0.125000000000, 0.125000000000, 0.125000000000, 0.125000000000, 0.125000000000, -0.125000000000, 0.125000000000, 0.125000000000, 0.125000000000, 0.125000000000, -0.125000000000, 0.125000000000, -0.125000000000, 0.125000000000, 0.125000000000, -0.125000000000, -0.125000000000, -0.125000000000, 0.125000000000, -0.125000000000, -0.125000000000, 0.125000000000, -0.125000000000, 0.125000000000, -0.125000000000, 0.125000000000, -0.125000000000, 0.125000000000, 0.125000000000, -0.125000000000, 0.125000000000, -0.125000000000, -0.125000000000, 0.125000000000, 0.125000000000, 0.125000000000, 0.125000000000, 0.125000000000, 0.125000000000, -0.125000000000, -0.125000000000, 0.125000000000, 0.125000000000, -0.125000000000, -0.125000000000, -0.125000000000, 0.125000000000, 0.125000000000, 0.125000000000, -0.125000000000, 0.125000000000, -0.125000000000, 0.125000000000, -0.125000000000, 0.125000000000, 0.125000000000, -0.125000000000, -0.125000000000, 0.125000000000, 0.125000000000, 0.125000000000, 0.125000000000, 0.125000000000, 0.125000000000, 0.125000000000, 0.125000000000, 0.125000000000, 0.125000000000, -0.125000000000, -0.125000000000, -0.125000000000, -0.125000000000, -0.125000000000, 0.125000000000, 0.125000000000, -0.125000000000, -0.125000000000, -0.125000000000, 0.125000000000, -0.125000000000, 0.125000000000, -0.125000000000, 0.125000000000, -0.125000000000, -0.125000000000, 0.125000000000, -0.125000000000, 0.125000000000, -0.125000000000, -0.125000000000, 0.125000000000, -0.125000000000, 0.125000000000, -0.125000000000, -0.125000000000, -0.125000000000, -0.125000000000, -0.125000000000, 0.125000000000, 0.125000000000, 0.125000000000, -0.125000000000, -0.125000000000, 0.125000000000, -0.125000000000, -0.125000000000, 0.125000000000, 0.125000000000, 0.125000000000, 0.125000000000, 0.125000000000, -0.125000000000, 0.125000000000, -0.125000000000, -0.125000000000, -0.125000000000, -0.125000000000, -0.125000000000, -0.125000000000, 0.125000000000, 0.125000000000, -0.125000000000, -0.125000000000, 0.125000000000, 0.125000000000, 0.125000000000, 0.125000000000, -0.125000000000, -0.125000000000, 0.125000000000, 0.125000000000, -0.125000000000, -0.125000000000, 0.125000000000, 0.125000000000, 0.125000000000, -0.125000000000, -0.125000000000, -0.125000000000, 0.125000000000, 0.125000000000, 0.125000000000, -0.125000000000, -0.125000000000, 0.125000000000, -0.125000000000, 0.125000000000, -0.125000000000, -0.125000000000, 0.125000000000, -0.125000000000, -0.125000000000, -0.125000000000, -0.125000000000, -0.125000000000, 0.125000000000, -0.125000000000, 0.125000000000, 0.125000000000, -0.125000000000, -0.125000000000, -0.125000000000, 0.125000000000, 0.125000000000, 0.125000000000, -0.125000000000, -0.125000000000, 0.125000000000, 0.125000000000, 0.125000000000, 0.125000000000, -0.125000000000, -0.125000000000, 0.125000000000, -0.125000000000, 0.125000000000, -0.125000000000, -0.125000000000, 0.125000000000, 0.125000000000, -0.125000000000, -0.125000000000, -0.125000000000, -0.125000000000, -0.125000000000, 0.125000000000, 0.125000000000, -0.125000000000, -0.125000000000, 0.125000000000, -0.125000000000, 0.125000000000, 0.125000000000, 0.125000000000, -0.125000000000, -0.125000000000, -0.125000000000, 0.125000000000, 0.125000000000, -0.125000000000, -0.125000000000, -0.125000000000, 0.125000000000, -0.125000000000, 0.125000000000, -0.125000000000, 0.125000000000, -0.125000000000, 0.125000000000, -0.125000000000, -0.125000000000, -0.125000000000, 0.125000000000, 0.125000000000, -0.125000000000, 0.125000000000, 0.125000000000, 0.125000000000, -0.125000000000, 0.125000000000, 0.125000000000, 0.125000000000, -0.125000000000, 0.125000000000, 0.125000000000, -0.125000000000, 0.125000000000, 0.125000000000, 0.125000000000, -0.125000000000, 0.125000000000, 0.125000000000, 0.125000000000, -0.125000000000, 0.125000000000, 0.125000000000, -0.125000000000, -0.125000000000, 0.125000000000, 0.125000000000, -0.125000000000, 0.125000000000, 0.125000000000, -0.125000000000, 0.125000000000, 0.125000000000, 0.125000000000, -0.125000000000, -0.125000000000, -0.125000000000, 0.125000000000, -0.125000000000, 0.125000000000, -0.125000000000, -0.125000000000, -0.125000000000, -0.125000000000, -0.125000000000, -0.125000000000, 0.125000000000, -0.125000000000, 0.125000000000, 0.125000000000, -0.125000000000, -0.125000000000, 0.125000000000, 0.125000000000, -0.125000000000, -0.125000000000, 0.125000000000, -0.125000000000, -0.125000000000, -0.125000000000, 0.125000000000, -0.125000000000, 0.125000000000, 0.125000000000, -0.125000000000, -0.125000000000, 0.125000000000, 0.125000000000, -0.125000000000, 0.125000000000, 0.125000000000, -0.125000000000, 0.125000000000, -0.125000000000, -0.125000000000, 0.125000000000, -0.125000000000, -0.125000000000, 0.125000000000, 0.125000000000, 0.125000000000, -0.125000000000, -0.125000000000, 0.125000000000, 0.125000000000, 0.125000000000, -0.125000000000, 0.125000000000, 0.125000000000, -0.125000000000, -0.125000000000, -0.125000000000, 0.125000000000, 0.125000000000, -0.125000000000, 0.125000000000, -0.125000000000, -0.125000000000, -0.125000000000, -0.125000000000, -0.125000000000, -0.125000000000, 0.125000000000, -0.125000000000, 0.125000000000, 0.125000000000, -0.125000000000, 0.125000000000, 0.125000000000, 0.125000000000, 0.125000000000, -0.125000000000, 0.125000000000, 0.125000000000, -0.125000000000, 0.125000000000, 0.125000000000, -0.125000000000, -0.125000000000, 0.125000000000, -0.125000000000, -0.125000000000, -0.125000000000, -0.125000000000, 0.125000000000, 0.125000000000, -0.125000000000, 0.125000000000, -0.125000000000, 0.125000000000, -0.125000000000, -0.125000000000, -0.125000000000, -0.125000000000, -0.125000000000, -0.125000000000, 0.125000000000, -0.125000000000, 0.125000000000, 0.125000000000, 0.125000000000, 0.125000000000, 0.125000000000, -0.125000000000, -0.125000000000, 0.125000000000, -0.125000000000, 0.125000000000, 0.125000000000, -0.125000000000, -0.125000000000, 0.125000000000, 0.125000000000, 0.125000000000, 0.125000000000, 0.125000000000, 0.125000000000, 0.125000000000, -0.125000000000, 0.125000000000, -0.125000000000, -0.125000000000, 0.125000000000, -0.125000000000, 0.125000000000, 0.125000000000, -0.125000000000, 0.125000000000, 0.125000000000, -0.125000000000, -0.125000000000, 0.125000000000, -0.125000000000, -0.125000000000, -0.125000000000, 0.125000000000, -0.125000000000, -0.125000000000, 0.125000000000, -0.125000000000, 0.125000000000, -0.125000000000, -0.125000000000, -0.125000000000, -0.125000000000, -0.125000000000, 0.125000000000, 0.125000000000, 0.125000000000, 0.125000000000, 0.125000000000, -0.125000000000, -0.125000000000, 0.125000000000, 0.125000000000, -0.125000000000, -0.125000000000, -0.125000000000, -0.125000000000, -0.125000000000, 0.125000000000, 0.125000000000, -0.125000000000, -0.125000000000, -0.125000000000, 0.125000000000, 0.125000000000, 0.125000000000, -0.125000000000, 0.125000000000, -0.125000000000, 0.125000000000, 0.125000000000, -0.125000000000, 0.125000000000, 0.125000000000, -0.125000000000, 0.125000000000, -0.125000000000, 0.125000000000, 0.125000000000, -0.125000000000, -0.125000000000, 0.125000000000, 0.125000000000, -0.125000000000, -0.125000000000, -0.125000000000, 0.125000000000, 0.125000000000, -0.125000000000, -0.125000000000, 0.125000000000, -0.125000000000, 0.125000000000, -0.125000000000, -0.125000000000, 0.125000000000, 0.125000000000, -0.125000000000, 0.125000000000, 0.125000000000, 0.125000000000, 0.125000000000, -0.125000000000, -0.125000000000, -0.125000000000, -0.125000000000, -0.125000000000, 0.125000000000, -0.125000000000, 0.125000000000, 0.125000000000, 0.125000000000, 0.125000000000, 0.125000000000, 0.125000000000, -0.125000000000, -0.125000000000, 0.125000000000, -0.125000000000, -0.125000000000, -0.125000000000, 0.125000000000, -0.125000000000, 0.125000000000, -0.125000000000, -0.125000000000, -0.125000000000, -0.125000000000, 0.125000000000, 0.125000000000, 0.125000000000, 0.125000000000, 0.125000000000, 0.125000000000, 0.125000000000, 0.125000000000, -0.125000000000, 0.125000000000, 0.125000000000, -0.125000000000, -0.125000000000, 0.125000000000, -0.125000000000, -0.125000000000, 0.125000000000, -0.125000000000, 0.125000000000, 0.125000000000, -0.125000000000, 0.125000000000, 0.125000000000, -0.125000000000, -0.125000000000, 0.125000000000, 0.125000000000, -0.125000000000, -0.125000000000, 0.125000000000, -0.125000000000, -0.125000000000, 0.125000000000, -0.125000000000, 0.125000000000, -0.125000000000, -0.125000000000, 0.125000000000, -0.125000000000, -0.125000000000, -0.125000000000, 0.125000000000, 0.125000000000, 0.125000000000, 0.125000000000, -0.125000000000, -0.125000000000, 0.125000000000, -0.125000000000, 0.125000000000, -0.125000000000, -0.125000000000, 0.125000000000, 0.125000000000, 0.125000000000, 0.125000000000, 0.125000000000, 0.125000000000, 0.125000000000, 0.125000000000, -0.125000000000, -0.125000000000, 0.125000000000, -0.125000000000, 0.125000000000, -0.125000000000, 0.125000000000, -0.125000000000, 0.125000000000, 0.125000000000, -0.125000000000, -0.125000000000, -0.125000000000, 0.125000000000, -0.125000000000, 0.125000000000, -0.125000000000, -0.125000000000, -0.125000000000, 0.125000000000, -0.125000000000, -0.125000000000, 0.125000000000, -0.125000000000, -0.125000000000, -0.125000000000, 0.125000000000, 0.125000000000, 0.125000000000, -0.125000000000, 0.125000000000, 0.125000000000, 0.125000000000, -0.125000000000, 0.125000000000, 0.125000000000, 0.125000000000, 0.125000000000, 0.125000000000, 0.125000000000, -0.125000000000, 0.125000000000, 0.125000000000, -0.125000000000, 0.125000000000, -0.125000000000, 0.125000000000, -0.125000000000, -0.125000000000, -0.125000000000, 0.125000000000, 0.125000000000, -0.125000000000, 0.125000000000, -0.125000000000, 0.125000000000, 0.125000000000, 0.125000000000, 0.125000000000, -0.125000000000, -0.125000000000, -0.125000000000, -0.125000000000, -0.125000000000, -0.125000000000, -0.125000000000, -0.125000000000, -0.125000000000, -0.125000000000, 0.125000000000, 0.125000000000, 0.125000000000, 0.125000000000, 0.125000000000, 0.125000000000, 0.125000000000, 0.125000000000, 0.125000000000, 0.125000000000, -0.125000000000, -0.125000000000, 0.125000000000, 0.125000000000, 0.125000000000, -0.125000000000, 0.125000000000, -0.125000000000, 0.125000000000, -0.125000000000, -0.125000000000, 0.125000000000, 0.125000000000, -0.125000000000, -0.125000000000, -0.125000000000, 0.125000000000, 0.125000000000, -0.125000000000, 0.125000000000, 0.125000000000, 0.125000000000, 0.125000000000, -0.125000000000, -0.125000000000, 0.125000000000, -0.125000000000, 0.125000000000, 0.125000000000, -0.125000000000, 0.125000000000, -0.125000000000, -0.125000000000, -0.125000000000, 0.125000000000, -0.125000000000, -0.125000000000, -0.125000000000, -0.125000000000, 0.125000000000, -0.125000000000, 0.125000000000, 0.125000000000, 0.125000000000, -0.125000000000, 0.125000000000, -0.125000000000, 0.125000000000, 0.125000000000, -0.125000000000, -0.125000000000, 0.125000000000, 0.125000000000, 0.125000000000, -0.125000000000, 0.125000000000, -0.125000000000, 0.125000000000, -0.125000000000, -0.125000000000, -0.125000000000, 0.125000000000, 0.125000000000, 0.125000000000, -0.125000000000, -0.125000000000, -0.125000000000, -0.125000000000, 0.125000000000, -0.125000000000, -0.125000000000, 0.125000000000, -0.125000000000, -0.125000000000, 0.125000000000, -0.125000000000, -0.125000000000, 0.125000000000, -0.125000000000, -0.125000000000, 0.125000000000, 0.125000000000, 0.125000000000, 0.125000000000, -0.125000000000, -0.125000000000, 0.125000000000, 0.125000000000, -0.125000000000, -0.125000000000, -0.125000000000, 0.125000000000, 0.125000000000, -0.125000000000, 0.125000000000, -0.125000000000, 0.125000000000, 0.125000000000, -0.125000000000, -0.125000000000, -0.125000000000, -0.125000000000, -0.125000000000, 0.125000000000, 0.125000000000, -0.125000000000, 0.125000000000, 0.125000000000, -0.125000000000, -0.125000000000, -0.125000000000, -0.125000000000, 0.125000000000, -0.125000000000, 0.125000000000, 0.125000000000, -0.125000000000, 0.125000000000, -0.125000000000, -0.125000000000, 0.125000000000, -0.125000000000, 0.125000000000, -0.125000000000, -0.125000000000, -0.125000000000, 0.125000000000, 0.125000000000, -0.125000000000, -0.125000000000, -0.125000000000, -0.125000000000, 0.125000000000, 0.125000000000, 0.125000000000, -0.125000000000, -0.125000000000, -0.125000000000, -0.125000000000, -0.125000000000, 0.125000000000, -0.125000000000, 0.125000000000, 0.125000000000, 0.125000000000, -0.125000000000, 0.125000000000, -0.125000000000, -0.125000000000, -0.125000000000, 0.125000000000, -0.125000000000, 0.125000000000, -0.125000000000, -0.125000000000, -0.125000000000, 0.125000000000, 0.125000000000, 0.125000000000, -0.125000000000, 0.125000000000, -0.125000000000, 0.125000000000, -0.125000000000, -0.125000000000, 0.125000000000, -0.125000000000, 0.125000000000, 0.125000000000, 0.125000000000, 0.125000000000, 0.125000000000, 0.125000000000, -0.125000000000, -0.125000000000, -0.125000000000, -0.125000000000, 0.125000000000, -0.125000000000, -0.125000000000, 0.125000000000, 0.125000000000, -0.125000000000, 0.125000000000, 0.125000000000, 0.125000000000, -0.125000000000, -0.125000000000, 0.125000000000, -0.125000000000, -0.125000000000, -0.125000000000, -0.125000000000, 0.125000000000, 0.125000000000, -0.125000000000, 0.125000000000, -0.125000000000, -0.125000000000, -0.125000000000, 0.125000000000, -0.125000000000, 0.125000000000, 0.125000000000, -0.125000000000, 0.125000000000, -0.125000000000, -0.125000000000, -0.125000000000, 0.125000000000, 0.125000000000, 0.125000000000, -0.125000000000, -0.125000000000, 0.125000000000, -0.125000000000, 0.125000000000, -0.125000000000, 0.125000000000, -0.125000000000, 0.125000000000, 0.125000000000, 0.125000000000, -0.125000000000, 0.125000000000, 0.125000000000, 0.125000000000, 0.125000000000, -0.125000000000, 0.125000000000, -0.125000000000, 0.125000000000, 0.125000000000, -0.125000000000, 0.125000000000, -0.125000000000, 0.125000000000, -0.125000000000, -0.125000000000, -0.125000000000, -0.125000000000, -0.125000000000, -0.125000000000, -0.125000000000, -0.125000000000, -0.125000000000, 0.125000000000, 0.125000000000, 0.125000000000, 0.125000000000, -0.125000000000, 0.125000000000, -0.125000000000, -0.125000000000, 0.125000000000, 0.125000000000, 0.125000000000, -0.125000000000, -0.125000000000, -0.125000000000, -0.125000000000, 0.125000000000, 0.125000000000, -0.125000000000, 0.125000000000, -0.125000000000, -0.125000000000, -0.125000000000, -0.125000000000, -0.125000000000, -0.125000000000, 0.125000000000, -0.125000000000, 0.125000000000, 0.125000000000, 0.125000000000, 0.125000000000, 0.125000000000, 0.125000000000, -0.125000000000, -0.125000000000, -0.125000000000, -0.125000000000, -0.125000000000, 0.125000000000, -0.125000000000, 0.125000000000, -0.125000000000, 0.125000000000, 0.125000000000, 0.125000000000, -0.125000000000, 0.125000000000, 0.125000000000, 0.125000000000, 0.125000000000, -0.125000000000, 0.125000000000, -0.125000000000, 0.125000000000, -0.125000000000, 0.125000000000, -0.125000000000, -0.125000000000, -0.125000000000, -0.125000000000, 0.125000000000, -0.125000000000, -0.125000000000, -0.125000000000, -0.125000000000, 0.125000000000, -0.125000000000, 0.125000000000, -0.125000000000, 0.125000000000, -0.125000000000, 0.125000000000, 0.125000000000, 0.125000000000, -0.125000000000, -0.125000000000, 0.125000000000, 0.125000000000, 0.125000000000, -0.125000000000, 0.125000000000, -0.125000000000, -0.125000000000, -0.125000000000, -0.125000000000, 0.125000000000, -0.125000000000, 0.125000000000, 0.125000000000, -0.125000000000, 0.125000000000, 0.125000000000, 0.125000000000, -0.125000000000, 0.125000000000, -0.125000000000, -0.125000000000, 0.125000000000, 0.125000000000, -0.125000000000, 0.125000000000, 0.125000000000, 0.125000000000, -0.125000000000, 0.125000000000, -0.125000000000, -0.125000000000, -0.125000000000, 0.125000000000, -0.125000000000, -0.125000000000, -0.125000000000, -0.125000000000, -0.125000000000, -0.125000000000, 0.125000000000, 0.125000000000, -0.125000000000, -0.125000000000, -0.125000000000, -0.125000000000, -0.125000000000, -0.125000000000, 0.125000000000, 0.125000000000, -0.125000000000, 0.125000000000, 0.125000000000, 0.125000000000, 0.125000000000, -0.125000000000, -0.125000000000, -0.125000000000, 0.125000000000, -0.125000000000, 0.125000000000, 0.125000000000, 0.125000000000, -0.125000000000, -0.125000000000, 0.125000000000, -0.125000000000, -0.125000000000, -0.125000000000, 0.125000000000, 0.125000000000, 0.125000000000, 0.125000000000, -0.125000000000, 0.125000000000, 0.125000000000, 0.125000000000, 0.125000000000, -0.125000000000, 0.125000000000, 0.125000000000, 0.125000000000, 0.125000000000, -0.125000000000, -0.125000000000, -0.125000000000, 0.125000000000, -0.125000000000, 0.125000000000, -0.125000000000, -0.125000000000, -0.125000000000, 0.125000000000, -0.125000000000, -0.125000000000, 0.125000000000, -0.125000000000, -0.125000000000, 0.125000000000, 0.125000000000, -0.125000000000, -0.125000000000, 0.125000000000, -0.125000000000, -0.125000000000, 0.125000000000, 0.125000000000, -0.125000000000, -0.125000000000, -0.125000000000, 0.125000000000, 0.125000000000, -0.125000000000, -0.125000000000, 0.125000000000, -0.125000000000, 0.125000000000, -0.125000000000, -0.125000000000, -0.125000000000, -0.125000000000, -0.125000000000, -0.125000000000, 0.125000000000, -0.125000000000, 0.125000000000, 0.125000000000, -0.125000000000, 0.125000000000, -0.125000000000, -0.125000000000, 0.125000000000, 0.125000000000, 0.125000000000, 0.125000000000, -0.125000000000, 0.125000000000, 0.125000000000, 0.125000000000, 0.125000000000, 0.125000000000, -0.125000000000, 0.125000000000, 0.125000000000, 0.125000000000, 0.125000000000, -0.125000000000, -0.125000000000, 0.125000000000, -0.125000000000, -0.125000000000, -0.125000000000, -0.125000000000, -0.125000000000, -0.125000000000, -0.125000000000, -0.125000000000, 0.125000000000, 0.125000000000, -0.125000000000, 0.125000000000, 0.125000000000, 0.125000000000, -0.125000000000, 0.125000000000, -0.125000000000, 0.125000000000, -0.125000000000, -0.125000000000, 0.125000000000, -0.125000000000, 0.125000000000, -0.125000000000, -0.125000000000, 0.125000000000, 0.125000000000, 0.125000000000, 0.125000000000, -0.125000000000, -0.125000000000, -0.125000000000, -0.125000000000, -0.125000000000, -0.125000000000, 0.125000000000, 0.125000000000, -0.125000000000, -0.125000000000, -0.125000000000, 0.125000000000, 0.125000000000, -0.125000000000, -0.125000000000, 0.125000000000, -0.125000000000, 0.125000000000, 0.125000000000, -0.125000000000, -0.125000000000, -0.125000000000, -0.125000000000, 0.125000000000, 0.125000000000, -0.125000000000, 0.125000000000, 0.125000000000, 0.125000000000, 0.125000000000, 0.125000000000, -0.125000000000, -0.125000000000, 0.125000000000, -0.125000000000, 0.125000000000, -0.125000000000, 0.125000000000, -0.125000000000, 0.125000000000, -0.125000000000, -0.125000000000, -0.125000000000, -0.125000000000, 0.125000000000, 0.125000000000, 0.125000000000, -0.125000000000, 0.125000000000, 0.125000000000, 0.125000000000, 0.125000000000, -0.125000000000, -0.125000000000, -0.125000000000, -0.125000000000, -0.125000000000, 0.125000000000, 0.125000000000, -0.125000000000, -0.125000000000, -0.125000000000, -0.125000000000, -0.125000000000, -0.125000000000, -0.125000000000, 0.125000000000, -0.125000000000, -0.125000000000, 0.125000000000, 0.125000000000, 0.125000000000, -0.125000000000, 0.125000000000, 0.125000000000, 0.125000000000, 0.125000000000, 0.125000000000, 0.125000000000, 0.125000000000, 0.125000000000, -0.125000000000, 0.125000000000, 0.125000000000, -0.125000000000, -0.125000000000, -0.125000000000, 0.125000000000, -0.125000000000, 0.125000000000, 0.125000000000, 0.125000000000, 0.125000000000, 0.125000000000, -0.125000000000, -0.125000000000, 0.125000000000, -0.125000000000, 0.125000000000, -0.125000000000, -0.125000000000, -0.125000000000, -0.125000000000, -0.125000000000, 0.125000000000, -0.125000000000, 0.125000000000, 0.125000000000, -0.125000000000, 0.125000000000, -0.125000000000, 0.125000000000, 0.125000000000, 0.125000000000, -0.125000000000, -0.125000000000, 0.125000000000, -0.125000000000, 0.125000000000, 0.125000000000, 0.125000000000, -0.125000000000, 0.125000000000, -0.125000000000, -0.125000000000, 0.125000000000, 0.125000000000, -0.125000000000, 0.125000000000, -0.125000000000, -0.125000000000, -0.125000000000, -0.125000000000, -0.125000000000, 0.125000000000, -0.125000000000, -0.125000000000, 0.125000000000, -0.125000000000, 0.125000000000, -0.125000000000, -0.125000000000, -0.125000000000, -0.125000000000, 0.125000000000, 0.125000000000, 0.125000000000, -0.125000000000, 0.125000000000, 0.125000000000, 0.125000000000, 0.125000000000, 0.125000000000, 0.125000000000, 0.125000000000, -0.125000000000, 0.125000000000, 0.125000000000, -0.125000000000, -0.125000000000, 0.125000000000, 0.125000000000, -0.125000000000, -0.125000000000, 0.125000000000, 0.125000000000, -0.125000000000, -0.125000000000, 0.125000000000, 0.125000000000, -0.125000000000, -0.125000000000, 0.125000000000, -0.125000000000, 0.125000000000, 0.125000000000, 0.125000000000, 0.125000000000, -0.125000000000, 0.125000000000, -0.125000000000, 0.125000000000, 0.125000000000, -0.125000000000, 0.125000000000, -0.125000000000, -0.125000000000, -0.125000000000, -0.125000000000, 0.125000000000, -0.125000000000, -0.125000000000, -0.125000000000, 0.125000000000, 0.125000000000, 0.125000000000, 0.125000000000, -0.125000000000, -0.125000000000, -0.125000000000, -0.125000000000, -0.125000000000, -0.125000000000, -0.125000000000, -0.125000000000, -0.125000000000, 0.125000000000, 0.125000000000, -0.125000000000, 0.125000000000, -0.125000000000, 0.125000000000, 0.125000000000, 0.125000000000, 0.125000000000, -0.125000000000, 0.125000000000, 0.125000000000, 0.125000000000, -0.125000000000, -0.125000000000, 0.125000000000, 0.125000000000, 0.125000000000, -0.125000000000, 0.125000000000, 0.125000000000, 0.125000000000, 0.125000000000, -0.125000000000, -0.125000000000, -0.125000000000, 0.125000000000, 0.125000000000, -0.125000000000, -0.125000000000, 0.125000000000, -0.125000000000, 0.125000000000, -0.125000000000, -0.125000000000, -0.125000000000, 0.125000000000, 0.125000000000, -0.125000000000, -0.125000000000, -0.125000000000, 0.125000000000, -0.125000000000, 0.125000000000, -0.125000000000, 0.125000000000, 0.125000000000, -0.125000000000, 0.125000000000, 0.125000000000, -0.125000000000, -0.125000000000, -0.125000000000, -0.125000000000, -0.125000000000, 0.125000000000, 0.125000000000, -0.125000000000, 0.125000000000, 0.125000000000, -0.125000000000, -0.125000000000, 0.125000000000, 0.125000000000, -0.125000000000, 0.125000000000, -0.125000000000, 0.125000000000, -0.125000000000, 0.125000000000, -0.125000000000, -0.125000000000, -0.125000000000, -0.125000000000, 0.125000000000, -0.125000000000, 0.125000000000, 0.125000000000, 0.125000000000, 0.125000000000, 0.125000000000, 0.125000000000, -0.125000000000, -0.125000000000, 0.125000000000, -0.125000000000, -0.125000000000, 0.125000000000, -0.125000000000, -0.125000000000, -0.125000000000, 0.125000000000, 0.125000000000, -0.125000000000, -0.125000000000, -0.125000000000, 0.125000000000, -0.125000000000, -0.125000000000, 0.125000000000, -0.125000000000, 0.125000000000, -0.125000000000, 0.125000000000, -0.125000000000, -0.125000000000, -0.125000000000, 0.125000000000, -0.125000000000, 0.125000000000, 0.125000000000, 0.125000000000, 0.125000000000, -0.125000000000, -0.125000000000, -0.125000000000, 0.125000000000, 0.125000000000, 0.125000000000, -0.125000000000, -0.125000000000, 0.125000000000, -0.125000000000, 0.125000000000};
