//Numpy array shape (84, 10)
//Min -0.125000000000
//Max 0.125000000000
//Number of zeros 0

weight_default_t w7[840] = {0.125000000000, -0.125000000000, -0.125000000000, -0.125000000000, -0.125000000000, -0.125000000000, -0.125000000000, 0.125000000000, -0.125000000000, 0.125000000000, -0.125000000000, -0.125000000000, 0.125000000000, 0.125000000000, -0.125000000000, -0.125000000000, -0.125000000000, 0.125000000000, 0.125000000000, -0.125000000000, -0.125000000000, 0.125000000000, 0.125000000000, -0.125000000000, -0.125000000000, -0.125000000000, -0.125000000000, -0.125000000000, -0.125000000000, -0.125000000000, -0.125000000000, -0.125000000000, -0.125000000000, -0.125000000000, 0.125000000000, 0.125000000000, -0.125000000000, -0.125000000000, 0.125000000000, 0.125000000000, -0.125000000000, -0.125000000000, -0.125000000000, -0.125000000000, -0.125000000000, -0.125000000000, -0.125000000000, 0.125000000000, 0.125000000000, 0.125000000000, -0.125000000000, 0.125000000000, -0.125000000000, -0.125000000000, 0.125000000000, -0.125000000000, -0.125000000000, -0.125000000000, -0.125000000000, -0.125000000000, -0.125000000000, -0.125000000000, 0.125000000000, 0.125000000000, -0.125000000000, 0.125000000000, -0.125000000000, 0.125000000000, -0.125000000000, -0.125000000000, -0.125000000000, -0.125000000000, 0.125000000000, -0.125000000000, 0.125000000000, -0.125000000000, 0.125000000000, -0.125000000000, -0.125000000000, -0.125000000000, 0.125000000000, -0.125000000000, 0.125000000000, -0.125000000000, 0.125000000000, -0.125000000000, -0.125000000000, -0.125000000000, -0.125000000000, 0.125000000000, 0.125000000000, -0.125000000000, -0.125000000000, -0.125000000000, -0.125000000000, 0.125000000000, 0.125000000000, -0.125000000000, 0.125000000000, -0.125000000000, 0.125000000000, 0.125000000000, -0.125000000000, -0.125000000000, 0.125000000000, -0.125000000000, -0.125000000000, 0.125000000000, -0.125000000000, -0.125000000000, 0.125000000000, -0.125000000000, -0.125000000000, -0.125000000000, 0.125000000000, 0.125000000000, 0.125000000000, -0.125000000000, 0.125000000000, 0.125000000000, -0.125000000000, 0.125000000000, -0.125000000000, -0.125000000000, -0.125000000000, 0.125000000000, -0.125000000000, -0.125000000000, 0.125000000000, -0.125000000000, 0.125000000000, -0.125000000000, -0.125000000000, -0.125000000000, 0.125000000000, -0.125000000000, 0.125000000000, -0.125000000000, -0.125000000000, 0.125000000000, -0.125000000000, -0.125000000000, 0.125000000000, -0.125000000000, 0.125000000000, 0.125000000000, -0.125000000000, -0.125000000000, -0.125000000000, -0.125000000000, -0.125000000000, -0.125000000000, -0.125000000000, -0.125000000000, -0.125000000000, -0.125000000000, 0.125000000000, 0.125000000000, -0.125000000000, -0.125000000000, 0.125000000000, -0.125000000000, -0.125000000000, 0.125000000000, -0.125000000000, -0.125000000000, -0.125000000000, -0.125000000000, -0.125000000000, -0.125000000000, 0.125000000000, -0.125000000000, 0.125000000000, 0.125000000000, -0.125000000000, 0.125000000000, -0.125000000000, -0.125000000000, -0.125000000000, -0.125000000000, -0.125000000000, -0.125000000000, -0.125000000000, 0.125000000000, 0.125000000000, -0.125000000000, -0.125000000000, 0.125000000000, -0.125000000000, 0.125000000000, -0.125000000000, 0.125000000000, -0.125000000000, -0.125000000000, 0.125000000000, -0.125000000000, -0.125000000000, 0.125000000000, -0.125000000000, -0.125000000000, -0.125000000000, -0.125000000000, -0.125000000000, 0.125000000000, -0.125000000000, 0.125000000000, 0.125000000000, -0.125000000000, -0.125000000000, -0.125000000000, -0.125000000000, -0.125000000000, -0.125000000000, -0.125000000000, -0.125000000000, 0.125000000000, -0.125000000000, -0.125000000000, -0.125000000000, 0.125000000000, 0.125000000000, 0.125000000000, 0.125000000000, -0.125000000000, 0.125000000000, 0.125000000000, -0.125000000000, -0.125000000000, -0.125000000000, -0.125000000000, 0.125000000000, 0.125000000000, 0.125000000000, 0.125000000000, -0.125000000000, -0.125000000000, -0.125000000000, 0.125000000000, -0.125000000000, -0.125000000000, -0.125000000000, 0.125000000000, -0.125000000000, -0.125000000000, 0.125000000000, 0.125000000000, 0.125000000000, -0.125000000000, -0.125000000000, -0.125000000000, -0.125000000000, -0.125000000000, 0.125000000000, 0.125000000000, -0.125000000000, 0.125000000000, -0.125000000000, -0.125000000000, 0.125000000000, 0.125000000000, -0.125000000000, 0.125000000000, -0.125000000000, -0.125000000000, -0.125000000000, -0.125000000000, -0.125000000000, -0.125000000000, 0.125000000000, 0.125000000000, -0.125000000000, -0.125000000000, -0.125000000000, -0.125000000000, -0.125000000000, -0.125000000000, 0.125000000000, -0.125000000000, -0.125000000000, 0.125000000000, -0.125000000000, -0.125000000000, -0.125000000000, 0.125000000000, -0.125000000000, -0.125000000000, -0.125000000000, -0.125000000000, 0.125000000000, -0.125000000000, -0.125000000000, 0.125000000000, -0.125000000000, -0.125000000000, -0.125000000000, -0.125000000000, 0.125000000000, 0.125000000000, -0.125000000000, -0.125000000000, 0.125000000000, 0.125000000000, -0.125000000000, 0.125000000000, -0.125000000000, 0.125000000000, -0.125000000000, -0.125000000000, -0.125000000000, 0.125000000000, 0.125000000000, -0.125000000000, 0.125000000000, 0.125000000000, -0.125000000000, -0.125000000000, -0.125000000000, -0.125000000000, 0.125000000000, -0.125000000000, -0.125000000000, -0.125000000000, -0.125000000000, -0.125000000000, 0.125000000000, -0.125000000000, -0.125000000000, -0.125000000000, 0.125000000000, -0.125000000000, -0.125000000000, 0.125000000000, -0.125000000000, -0.125000000000, -0.125000000000, -0.125000000000, -0.125000000000, 0.125000000000, 0.125000000000, -0.125000000000, -0.125000000000, 0.125000000000, 0.125000000000, -0.125000000000, -0.125000000000, -0.125000000000, -0.125000000000, -0.125000000000, -0.125000000000, -0.125000000000, 0.125000000000, 0.125000000000, -0.125000000000, -0.125000000000, -0.125000000000, -0.125000000000, -0.125000000000, -0.125000000000, -0.125000000000, 0.125000000000, -0.125000000000, -0.125000000000, 0.125000000000, -0.125000000000, 0.125000000000, 0.125000000000, 0.125000000000, -0.125000000000, 0.125000000000, -0.125000000000, -0.125000000000, -0.125000000000, -0.125000000000, -0.125000000000, -0.125000000000, 0.125000000000, -0.125000000000, 0.125000000000, 0.125000000000, 0.125000000000, -0.125000000000, 0.125000000000, -0.125000000000, -0.125000000000, -0.125000000000, 0.125000000000, -0.125000000000, -0.125000000000, -0.125000000000, -0.125000000000, -0.125000000000, 0.125000000000, -0.125000000000, -0.125000000000, -0.125000000000, 0.125000000000, 0.125000000000, -0.125000000000, -0.125000000000, 0.125000000000, -0.125000000000, -0.125000000000, -0.125000000000, -0.125000000000, 0.125000000000, -0.125000000000, 0.125000000000, -0.125000000000, 0.125000000000, -0.125000000000, -0.125000000000, -0.125000000000, -0.125000000000, 0.125000000000, -0.125000000000, 0.125000000000, -0.125000000000, -0.125000000000, 0.125000000000, -0.125000000000, 0.125000000000, -0.125000000000, -0.125000000000, -0.125000000000, -0.125000000000, 0.125000000000, -0.125000000000, 0.125000000000, -0.125000000000, -0.125000000000, 0.125000000000, -0.125000000000, -0.125000000000, -0.125000000000, -0.125000000000, 0.125000000000, -0.125000000000, 0.125000000000, 0.125000000000, -0.125000000000, -0.125000000000, -0.125000000000, -0.125000000000, -0.125000000000, -0.125000000000, -0.125000000000, 0.125000000000, -0.125000000000, -0.125000000000, 0.125000000000, -0.125000000000, -0.125000000000, 0.125000000000, -0.125000000000, -0.125000000000, -0.125000000000, 0.125000000000, 0.125000000000, -0.125000000000, 0.125000000000, -0.125000000000, 0.125000000000, -0.125000000000, 0.125000000000, -0.125000000000, -0.125000000000, 0.125000000000, -0.125000000000, -0.125000000000, 0.125000000000, -0.125000000000, -0.125000000000, 0.125000000000, -0.125000000000, -0.125000000000, -0.125000000000, -0.125000000000, 0.125000000000, -0.125000000000, -0.125000000000, -0.125000000000, 0.125000000000, -0.125000000000, 0.125000000000, -0.125000000000, 0.125000000000, 0.125000000000, -0.125000000000, -0.125000000000, -0.125000000000, -0.125000000000, 0.125000000000, -0.125000000000, 0.125000000000, 0.125000000000, -0.125000000000, -0.125000000000, 0.125000000000, -0.125000000000, -0.125000000000, 0.125000000000, -0.125000000000, -0.125000000000, -0.125000000000, -0.125000000000, -0.125000000000, 0.125000000000, -0.125000000000, -0.125000000000, -0.125000000000, 0.125000000000, -0.125000000000, -0.125000000000, 0.125000000000, 0.125000000000, -0.125000000000, -0.125000000000, -0.125000000000, 0.125000000000, 0.125000000000, -0.125000000000, -0.125000000000, 0.125000000000, 0.125000000000, -0.125000000000, -0.125000000000, -0.125000000000, 0.125000000000, 0.125000000000, -0.125000000000, 0.125000000000, 0.125000000000, 0.125000000000, 0.125000000000, 0.125000000000, -0.125000000000, -0.125000000000, -0.125000000000, -0.125000000000, -0.125000000000, 0.125000000000, -0.125000000000, 0.125000000000, -0.125000000000, 0.125000000000, -0.125000000000, -0.125000000000, 0.125000000000, -0.125000000000, -0.125000000000, 0.125000000000, 0.125000000000, -0.125000000000, -0.125000000000, -0.125000000000, -0.125000000000, -0.125000000000, -0.125000000000, 0.125000000000, -0.125000000000, 0.125000000000, -0.125000000000, 0.125000000000, -0.125000000000, -0.125000000000, -0.125000000000, -0.125000000000, 0.125000000000, -0.125000000000, 0.125000000000, -0.125000000000, -0.125000000000, 0.125000000000, -0.125000000000, -0.125000000000, 0.125000000000, 0.125000000000, -0.125000000000, -0.125000000000, -0.125000000000, -0.125000000000, 0.125000000000, 0.125000000000, -0.125000000000, -0.125000000000, -0.125000000000, -0.125000000000, -0.125000000000, -0.125000000000, -0.125000000000, -0.125000000000, -0.125000000000, 0.125000000000, -0.125000000000, -0.125000000000, -0.125000000000, 0.125000000000, -0.125000000000, 0.125000000000, -0.125000000000, -0.125000000000, -0.125000000000, -0.125000000000, -0.125000000000, 0.125000000000, -0.125000000000, -0.125000000000, 0.125000000000, -0.125000000000, 0.125000000000, -0.125000000000, 0.125000000000, 0.125000000000, -0.125000000000, 0.125000000000, -0.125000000000, -0.125000000000, -0.125000000000, -0.125000000000, 0.125000000000, -0.125000000000, -0.125000000000, -0.125000000000, -0.125000000000, 0.125000000000, -0.125000000000, -0.125000000000, -0.125000000000, 0.125000000000, 0.125000000000, 0.125000000000, -0.125000000000, -0.125000000000, 0.125000000000, -0.125000000000, -0.125000000000, -0.125000000000, 0.125000000000, -0.125000000000, -0.125000000000, -0.125000000000, -0.125000000000, -0.125000000000, -0.125000000000, 0.125000000000, 0.125000000000, -0.125000000000, -0.125000000000, -0.125000000000, -0.125000000000, -0.125000000000, -0.125000000000, 0.125000000000, 0.125000000000, -0.125000000000, -0.125000000000, 0.125000000000, -0.125000000000, -0.125000000000, 0.125000000000, -0.125000000000, -0.125000000000, -0.125000000000, 0.125000000000, -0.125000000000, 0.125000000000, -0.125000000000, 0.125000000000, -0.125000000000, -0.125000000000, 0.125000000000, 0.125000000000, -0.125000000000, -0.125000000000, 0.125000000000, -0.125000000000, 0.125000000000, -0.125000000000, -0.125000000000, 0.125000000000, 0.125000000000, -0.125000000000, 0.125000000000, -0.125000000000, -0.125000000000, 0.125000000000, -0.125000000000, -0.125000000000, -0.125000000000, -0.125000000000, -0.125000000000, -0.125000000000, -0.125000000000, -0.125000000000, 0.125000000000, 0.125000000000, 0.125000000000, 0.125000000000, -0.125000000000, -0.125000000000, -0.125000000000, 0.125000000000, -0.125000000000, 0.125000000000, -0.125000000000, -0.125000000000, -0.125000000000, 0.125000000000, -0.125000000000, -0.125000000000, 0.125000000000, -0.125000000000, -0.125000000000, 0.125000000000, -0.125000000000, -0.125000000000, 0.125000000000, -0.125000000000, 0.125000000000, -0.125000000000, -0.125000000000, 0.125000000000, -0.125000000000, 0.125000000000, -0.125000000000, 0.125000000000, -0.125000000000, -0.125000000000, 0.125000000000, -0.125000000000, -0.125000000000, -0.125000000000, -0.125000000000, -0.125000000000, 0.125000000000, -0.125000000000, -0.125000000000, 0.125000000000, 0.125000000000, -0.125000000000, 0.125000000000, -0.125000000000, 0.125000000000, 0.125000000000, 0.125000000000, -0.125000000000, 0.125000000000, -0.125000000000, 0.125000000000, -0.125000000000, 0.125000000000, -0.125000000000, -0.125000000000, -0.125000000000, -0.125000000000, 0.125000000000, -0.125000000000, -0.125000000000, -0.125000000000, 0.125000000000, -0.125000000000, -0.125000000000, -0.125000000000, 0.125000000000, 0.125000000000, -0.125000000000, -0.125000000000, -0.125000000000, -0.125000000000, 0.125000000000, 0.125000000000, 0.125000000000, -0.125000000000, -0.125000000000, -0.125000000000, -0.125000000000, 0.125000000000, -0.125000000000, 0.125000000000, -0.125000000000, -0.125000000000, 0.125000000000, -0.125000000000, -0.125000000000, -0.125000000000, -0.125000000000, 0.125000000000, -0.125000000000, 0.125000000000, -0.125000000000, 0.125000000000, 0.125000000000, -0.125000000000, -0.125000000000, -0.125000000000, -0.125000000000, -0.125000000000, -0.125000000000, 0.125000000000, -0.125000000000, -0.125000000000, 0.125000000000, -0.125000000000, 0.125000000000, -0.125000000000, -0.125000000000, -0.125000000000, -0.125000000000, -0.125000000000, 0.125000000000, -0.125000000000, 0.125000000000, 0.125000000000, -0.125000000000, -0.125000000000, -0.125000000000, -0.125000000000, 0.125000000000, 0.125000000000, 0.125000000000, -0.125000000000, -0.125000000000, -0.125000000000, 0.125000000000, -0.125000000000, -0.125000000000, 0.125000000000, -0.125000000000, -0.125000000000, -0.125000000000, 0.125000000000, -0.125000000000, -0.125000000000, -0.125000000000, -0.125000000000, 0.125000000000, 0.125000000000, 0.125000000000, -0.125000000000, -0.125000000000};
